{
  "config": {
    "inputNodes": 19,
    "outputNodes": 3,
    "hiddenLayers": [
      57
    ],
    "learningRate": 0.1,
    "activationFunction": "SIGMOID",
    "seed": -1416189111280737603
  },
  "weights": [
    {
      "type": "SimpleMatrix",
      "cols": 19,
      "rows": 57,
      "values": [
        -8.090414573064963,
        4.181021590162131,
        2.465314256650449,
        1.8556661534884582,
        0.9185210477177499,
        0.5918218566504879,
        0.4355287906457436,
        -0.7579638430152984,
        0.7937403167572548,
        1.3966432145670091,
        1.1594357153653616,
        0.24159860954343929,
        0.2528191693185252,
        0.2526968772193787,
        0.6107112702218661,
        0.21044765984585304,
        0.14529197625558188,
        0.15908358178782542,
        0.690957028640568,
        1.6567576517043914,
        0.6460332534836929,
        -0.7091263920212073,
        -0.12038052342447159,
        -0.896767661155975,
        0.8934053655870102,
        -0.20077918583414506,
        0.7835353798385797,
        -0.5818615451445401,
        0.9053064234230046,
        1.2494324976159936,
        1.3002214446711338,
        1.0599466616171347,
        0.6935337044428191,
        0.9749640333364289,
        0.7877084218100167,
        1.7084488767746526,
        1.5500229141519974,
        2.089966440302103,
        0.22179664769242785,
        -0.7475873400919341,
        0.26880411142592897,
        0.10123816254919599,
        -0.11451946388675048,
        -0.41454147537870023,
        0.6942550159564389,
        -0.6420567373055489,
        -0.5266129790607481,
        -0.48706536689075364,
        -0.8512638316228366,
        -1.798455630505388,
        -0.21776963591783766,
        -1.1563967715285137,
        -1.070410068326596,
        -1.6706685152720195,
        -1.3233741210173886,
        -1.7169861914894573,
        -0.732736170950889,
        -10.137116139280126,
        3.585675747680531,
        2.5563735236238903,
        2.1555349562341113,
        1.1525591603719416,
        1.0734376243676613,
        1.1027491265343299,
        -0.7053671297579157,
        -0.2844744081323247,
        1.2074508713608063,
        1.0485864377381324,
        0.32381853593785664,
        0.1519444859721634,
        0.18052043433297746,
        0.016723700051136017,
        0.3123478898286809,
        0.14378217964643775,
        0.4932969517465998,
        -0.05315926497334595,
        -0.526021100502856,
        -1.061406413076188,
        -0.8424741837052837,
        -0.6010321284315113,
        -0.6917098330673097,
        0.4559649663383692,
        0.03402460801810226,
        -0.7875633746893649,
        0.5362265482051973,
        -1.9295502920734224,
        -0.7697254127113166,
        -1.3020763548442806,
        -1.778031879287326,
        -0.7856356299710948,
        -0.7940700484743111,
        -1.587499981465999,
        -0.8242963745480211,
        -0.4790333874406309,
        -1.3210901000505766,
        -2.2428707056404593,
        0.33719401602336535,
        1.27991163140024,
        1.0883011775956768,
        -0.1890832465318452,
        0.2362480607158577,
        -0.6468829992928317,
        0.05676400620309303,
        0.5363763817002158,
        0.05690378059256344,
        -1.413393371283063,
        -0.538861870004979,
        -0.7913570319754962,
        -1.6778342284457017,
        -0.27371393072912453,
        -0.5171488537307585,
        -0.08132920845863563,
        -1.4294285766907002,
        -1.8650696095278325,
        -0.7319579735716237,
        -0.897092419383784,
        -1.0419018973541265,
        -0.9646081421333945,
        0.21370681604737773,
        -0.03802952187138283,
        0.45083240411062075,
        0.28990305275423667,
        -0.5866157641113892,
        -0.6479343904105573,
        -1.177103802516823,
        -1.6902386890670091,
        -1.431944535887362,
        -1.1700750957930357,
        -0.929328701381197,
        -0.9250198179024249,
        -1.5090182922745567,
        -0.6015747347751026,
        -0.8651515944886604,
        8.60890401768889,
        3.6562877763511605,
        0.20068817359273888,
        -0.8670615099889345,
        -1.8939012918361304,
        -2.330795333793323,
        -1.88259635680718,
        -0.7450539638215439,
        -0.16520439341050186,
        -2.1352748125468426,
        -1.4218877825666678,
        0.3137007992322508,
        -0.4947959384310898,
        -0.0793953060163795,
        1.1563512547584593,
        0.30745083100460335,
        0.43524948777597317,
        0.5367866158921168,
        0.5073620675542803,
        9.405402667942132,
        -3.7022359472736888,
        -2.0790632015609884,
        -1.5036794531242081,
        -0.8224341007796541,
        0.12337150738891839,
        0.2100983793205642,
        -0.4200046933595704,
        0.9747212864109969,
        -0.7746621730966453,
        -1.0591850791410733,
        -0.40675361212518,
        -0.061755061831865805,
        -0.28782786276564254,
        -0.49520736737397497,
        -0.4397955359037792,
        -0.49822701103155204,
        -0.598543035364708,
        -0.10673445597678971,
        6.9774126695389995,
        -3.4677552747219638,
        -1.8551494125695962,
        -1.7188017797939945,
        -0.1592991913025209,
        0.30430213000535566,
        0.36266201220561767,
        0.643833545444833,
        -0.6077368342435747,
        -1.5304556388674895,
        -1.311751792083166,
        -0.609868429963272,
        -0.03857809951746265,
        -0.5666757345768472,
        -0.29186107131675165,
        0.21033268138111905,
        -0.6537721912751473,
        -0.3483064814077888,
        -0.5414470361352798,
        -11.027385813603557,
        4.004635358726367,
        2.464745843354214,
        1.7049308875665123,
        1.0789114602576058,
        0.3071958472833008,
        1.019581122761205,
        -0.30481664293866595,
        0.6214250138183974,
        0.7912657498045288,
        0.7095631464839224,
        0.5099305989735983,
        0.3913887795590424,
        0.360602531960154,
        0.4493028998148776,
        0.15723575368000428,
        0.34134783458704165,
        0.5972623078789204,
        0.44587471342481766,
        1.0831314734955304,
        0.2267354781259931,
        -0.39243248420947024,
        0.8263315832878593,
        0.21431417918250734,
        0.16346946067124615,
        0.37340306966666753,
        -0.18581126931627856,
        -0.5835474838139967,
        1.383614581244794,
        0.8532188126056649,
        1.8412453074709887,
        1.1765995843905055,
        1.208373625696227,
        1.5370138275364986,
        1.0204336921984665,
        0.6469476739552983,
        1.3006909758426402,
        1.0968354257864292,
        0.20309619753863278,
        1.865140180986646,
        0.5794987059462683,
        0.5007861912590627,
        -0.5640725688651994,
        -0.3902047229241417,
        -0.9191230427497359,
        0.5137097852265446,
        0.4542221349237139,
        1.1727546748845366,
        0.9138278341967189,
        1.5315789535710078,
        1.0311458077817306,
        0.7825260390800468,
        0.9980158334741139,
        0.4569183261946598,
        1.8807424449546197,
        1.138410585601613,
        0.6031568994532186,
        -8.62453440626126,
        3.7783719252841763,
        2.077855252900747,
        1.2458454025965875,
        0.18700713447909592,
        -0.267272316705511,
        0.9501725300283791,
        0.4581779367740703,
        -0.12366888414029753,
        1.6014431691324318,
        1.3102783574135028,
        0.21158474464784738,
        0.05349820906132202,
        0.21155790038165026,
        0.3338603468088399,
        0.7239078361476676,
        0.2146309448557053,
        0.6550958582849117,
        0.4834253011074261,
        1.5557100808492554,
        0.7401698219897546,
        -0.29975726517358453,
        0.8730724637963506,
        0.6735132951314049,
        0.7158276605480824,
        0.2851970539657931,
        -0.9644366948700602,
        -0.9522599295943011,
        0.689382989875037,
        0.7987702844383648,
        0.038840804624174566,
        1.0822883577162024,
        1.3385720870597655,
        1.403241644714662,
        1.7219457848970998,
        1.7709639634455203,
        1.3587238701995774,
        1.4203694715121218,
        -12.255298170534466,
        0.31658174538311656,
        3.937676456043387,
        3.44711682738583,
        2.2539393244392256,
        1.2469180510566955,
        1.4320568842528998,
        -0.19257940750947497,
        -0.7515198893856947,
        5.880102673854251,
        6.514992491425091,
        -0.8064907110905535,
        -1.2239895496013742,
        -1.1821583132653217,
        -0.3350973478242122,
        -0.223443585954739,
        0.11128065214836276,
        -0.8749324500215675,
        -0.26913765772275317,
        2.399209088981298,
        0.7859717899029133,
        -0.2638573515967704,
        0.523542029688261,
        0.7664372625140886,
        0.28635248702841604,
        0.47483746734048904,
        -0.671303065160626,
        0.7533638012554749,
        0.713224342453596,
        -0.010516046802899406,
        0.7502025983795231,
        0.7421663038258619,
        1.165576041822558,
        1.0775014163925918,
        0.9048932663422479,
        1.2601678923413375,
        1.035709302389404,
        0.7792685388013182,
        1.0007460064955023,
        1.0334500679632077,
        -0.3428864391991238,
        0.242806339374957,
        0.7342067133454274,
        0.4768679754129777,
        0.1461753243727423,
        -0.8987611578154859,
        0.11950715279258217,
        1.594442173012408,
        0.184956772502732,
        0.9920930959597707,
        0.34307362800488095,
        0.7815502009347376,
        0.6278788701135402,
        0.6653343052969792,
        1.040624649975979,
        0.8767901035853765,
        1.911706974623034,
        9.198969023139709,
        -4.022507070416214,
        -2.253003890101661,
        -1.5285046963081763,
        -0.7687248365704415,
        -0.8253458924806225,
        0.04662333795231594,
        0.2067470553417588,
        -0.9004809251036481,
        -1.6677289099930082,
        -2.0331733059898047,
        -0.41523438951436137,
        -0.013552504893762725,
        -0.6192558933551747,
        -0.11598753704607012,
        -1.583809004174266E-4,
        -0.02560539641477043,
        -0.23685049034065062,
        -0.5684988296150479,
        -0.4401122307318374,
        -0.9473111862157781,
        -0.879914466889401,
        -0.14050795941671548,
        -0.8961870762757562,
        -0.29141622694472985,
        0.49382216945344776,
        -0.43147408046698227,
        0.9354105621830353,
        -0.8328958486739141,
        -1.6531920888127205,
        -0.3562504338166478,
        -0.5519775405834804,
        -1.645690437893913,
        -2.1067150228473763,
        -1.5719406921634704,
        -1.4801946992023798,
        -1.1819103981032062,
        -1.274796002359606,
        11.000960662772302,
        -4.48187682731161,
        -2.756806857372248,
        -2.2014880759707114,
        -1.1570745289859647,
        -0.5520393375552984,
        -1.2174865433148732,
        -0.9716889132511533,
        0.9569234381005287,
        -1.024327071490102,
        -0.9707929756409036,
        -0.35937357319512986,
        -0.3324238217876548,
        -0.5168077166757893,
        -0.581862107761875,
        -0.11010470914697307,
        -0.4725338763934802,
        -0.40830812635903846,
        -0.29109342771096725,
        8.619019916043083,
        -3.088122047065678,
        -2.4238424006112007,
        -1.8180779135816065,
        -0.39613563290253595,
        0.07543069113505083,
        -0.34524024665367165,
        0.09246191667122491,
        -0.0200701542845636,
        -0.916561055616531,
        -1.2325698628697321,
        0.21144522017308898,
        -0.28470462887107545,
        0.09102398636678019,
        -0.5786814919915467,
        0.21945115589839456,
        -0.18220889731507914,
        0.11597727097777388,
        -0.3746102164863276,
        -0.8112814489947323,
        -0.9042599154777631,
        0.42334602637348206,
        -0.31879491825426576,
        0.3818142626897213,
        0.3135405696790276,
        -0.209882343682291,
        -0.5925336654550202,
        -0.1470024696040848,
        -0.52748914168838,
        -0.6650347132638821,
        -0.5110615387134537,
        -1.2141804939954852,
        -1.0486288995947732,
        -1.4629033472746635,
        -1.1936367954676104,
        -1.7859885333519296,
        -1.842699733199496,
        -0.9100898033685193,
        -1.5504595575663094,
        -0.32593149028830504,
        0.09762126565041417,
        0.3570495068845715,
        0.5070268465997169,
        -0.4284747478225269,
        0.15641943198642488,
        0.050200385648346044,
        -0.5118264182767629,
        -1.6387203118370481,
        -1.3713017415556392,
        -1.7753050884191226,
        -1.7189226167918696,
        -1.9026145149602887,
        -0.608320484504505,
        -0.5334778864547242,
        -1.0964081178561358,
        -1.071647170720349,
        -1.6644677463326916,
        -0.13029086309496996,
        -1.2732616385467643,
        -0.47367768143462974,
        -0.7857116622287844,
        0.48797445564314335,
        0.5363691721123562,
        0.6889170679881689,
        -0.6976664635121603,
        0.7890895955065294,
        -1.3928168075350698,
        -0.9090750885974814,
        -1.604129029312175,
        -0.4949401857063127,
        -0.6488487824720914,
        -0.2686302454773249,
        -1.3669531025393726,
        -1.1351245838359767,
        -1.2741257799266843,
        -1.1066354260306492,
        -9.886517358991709,
        4.693297290531903,
        2.916882382739718,
        2.4795614878091934,
        1.5020452555675887,
        1.4187123249218745,
        1.1718965972834778,
        1.0242364430220616,
        -0.5342044608148993,
        0.6597267793699222,
        0.5821920851779167,
        0.008375631082886803,
        0.08707468610513061,
        0.16464277476445896,
        0.4335766797536532,
        0.05911647801703607,
        0.10581113090360908,
        0.6924223301726365,
        0.5872561854664451,
        -2.874966772727525,
        -0.20419842289938175,
        0.6656434840259475,
        0.39337899384555597,
        0.7280070371497513,
        0.3201192022496279,
        -0.9012042835837274,
        -0.2917391997439702,
        0.7399483347938101,
        -1.306665077351805,
        -0.5332989057182782,
        -0.580690168702486,
        -1.2688534137521668,
        -0.37202681806376103,
        -0.909087674042703,
        -1.8906707756097436,
        -0.6950042810283024,
        -2.2672220940942234,
        -1.2880943782815852,
        -0.22504009282997717,
        1.1558696164417428,
        1.0557735994754467,
        -0.28638384477296575,
        -0.7532678135649075,
        0.33565183426197387,
        0.9664323879229783,
        -0.5917023591588543,
        0.31307878012513224,
        1.9753786132271298,
        0.8216773333428848,
        0.29352691599346126,
        0.6056148726714521,
        1.2158739759255615,
        1.0366510449410389,
        1.977991489759451,
        1.8091606321524287,
        0.9139494486054369,
        1.3301184779086441,
        -0.10757391126402632,
        1.584260685891527,
        0.2084303801449293,
        1.1122893807278804,
        -0.29033380623090094,
        0.7381607146535945,
        0.9843362165140717,
        -0.5697839779034579,
        -0.23074937421650032,
        1.7015165939063392,
        1.6812734041531447,
        0.9838534953729131,
        1.4041739380726108,
        1.5517546196961391,
        0.3952006263350134,
        0.48545773101814704,
        1.3503009541858593,
        1.0722485622988343,
        1.487030350853771,
        -2.074530708283263,
        -0.0953368531024381,
        -0.7987486313031983,
        0.7960028920833189,
        0.8244389571838461,
        -0.654399301803469,
        0.42319905614017445,
        -0.09949146295750419,
        0.49163389365803645,
        -1.6201748034915877,
        -1.3981483793112228,
        -0.9742146779148847,
        -0.9792415205076633,
        -1.2505786045247984,
        -1.2431350676962238,
        -1.3516387164172274,
        -2.00329480772643,
        -0.5039760884743526,
        -1.0021150615957737,
        1.7834798484523942,
        0.4523729433458208,
        0.9238972930884721,
        -0.26572582145868073,
        -0.12191103441810794,
        0.9031970944488805,
        -0.09567420717190123,
        -0.8485722384190528,
        0.4189675483385684,
        0.8360511725755935,
        1.4278668604197609,
        0.5439722882482291,
        1.3354779982985432,
        0.6273832733371296,
        1.80664126065714,
        1.596199864711432,
        0.3256589530469633,
        1.716681282371768,
        1.1771254413092629,
        -10.0364403202003,
        4.022482833398387,
        2.637631113418236,
        2.065830535478788,
        1.3363314831865691,
        1.2115823967737673,
        0.44438829946423286,
        0.729150369676225,
        0.1819022374768171,
        1.1032008318759936,
        0.7376983766594547,
        0.22724194889314064,
        -0.14484547913497306,
        0.3652395135051473,
        0.4512934681170665,
        0.04581530145549826,
        0.2869230755455446,
        0.5688824479123104,
        0.4258396457258139,
        -8.401122791058528,
        3.883742745623657,
        2.163921198293111,
        1.517146184059115,
        0.9071680764334177,
        0.32866491533515224,
        0.28720149882183643,
        -0.32218088276910994,
        -0.7663018071750518,
        2.08422899808689,
        1.6661635585060244,
        0.252707110211349,
        0.4058849212040231,
        0.3506573056743628,
        0.1989712259530016,
        0.05470426808109356,
        -0.005533924220686905,
        0.4294914716524139,
        -0.29567220261130656,
        -8.08233097565696,
        4.053018140664797,
        2.4991042530882144,
        1.5050193320584686,
        0.7347228437832238,
        -0.06335988627221195,
        0.6858125738288895,
        0.9186947487655601,
        0.8439285662148541,
        0.9530273507595793,
        0.9721542994011523,
        0.04445978234865294,
        0.22003141315575492,
        0.11766647066789523,
        0.1363438702387369,
        0.34020121002521064,
        0.4790550456815519,
        0.3674728512313751,
        0.44810483704669096,
        9.085034872414665,
        -3.670461450212931,
        -2.412688961806491,
        -1.486577345149036,
        -1.3396825359746425,
        0.0021857763778140105,
        -0.7946907175984937,
        -0.006469010721504362,
        0.4423317493907166,
        -0.4622045572075463,
        -0.9106587169639668,
        -0.27853974289560374,
        -0.08764720061749934,
        -0.4685583577883666,
        -0.20614880418770395,
        0.24322458527714022,
        -0.07147852831915229,
        -0.34841467470405557,
        -0.3099174519626364,
        -3.347465825627053,
        0.10144119039799654,
        0.08787701844639685,
        0.8264140286646067,
        0.3374931738280534,
        0.41315522879304994,
        -0.3198214554067647,
        -0.9228064499774998,
        -0.28768711738478014,
        -0.4709674527314627,
        0.08121929156972774,
        -0.6292843849663342,
        0.03834303423481993,
        -0.8300800107216615,
        -1.6482622671191898,
        -1.5506258791414866,
        -1.3203204865484122,
        -1.2637667820840754,
        -1.5739731891283424,
        1.1376295020261542,
        0.6823040376745604,
        -0.49628330890415234,
        0.460398386795768,
        0.8398256716281607,
        0.7781317477146962,
        0.51225211779907,
        0.6183337941268261,
        -0.11421683185973497,
        1.630654871078064,
        2.0045268149913724,
        0.9117692597137025,
        1.885500653307518,
        1.304323942906272,
        1.2712469833612485,
        1.378436613803439,
        1.5900306759101688,
        0.9881504466364512,
        0.5400487785405816,
        1.5081335340693414,
        -1.5896749927250355,
        -0.18001434092204963,
        0.45811185977004176,
        0.44078547375708027,
        -0.9408987753542609,
        0.5253618515784788,
        -0.6395974898293769,
        -0.8519866025328255,
        -1.3030049806283646,
        -1.5060740270137025,
        -1.4428432206814579,
        -1.3320433636560092,
        -1.3006807596607173,
        -1.8437212588509158,
        -1.8958307558915777,
        -1.1681008658738319,
        -0.7655609332706006,
        -1.5951583002625982,
        1.8618571208074643,
        0.6430215075293438,
        0.16976124842393253,
        -0.7416539530514705,
        0.41089085909882045,
        0.775192476463948,
        -0.448053163746105,
        -0.8982780262026726,
        -0.8329024919053818,
        0.5892302737370817,
        0.40666954869678723,
        1.3715847997955322,
        1.3281726136535335,
        1.3353034932426835,
        1.5476511371950676,
        2.0920141736798668,
        1.002227461046638,
        0.8458091967721022,
        0.6594771435218868,
        0.22408451369107685,
        1.625521773311182,
        1.28627586785554,
        0.8067092775080108,
        0.2775263464682687,
        0.032132600504669304,
        -0.26965124249630884,
        -0.4466115999782868,
        -0.7273601347060485,
        0.6688656778649177,
        0.8474642803833148,
        -0.10558081656844497,
        0.8638807855725062,
        1.2441061357684713,
        1.0699087461489287,
        0.13994379030806703,
        1.190128976083128,
        1.6645923117817907,
        1.4994118642387695,
        3.1685230543508056,
        -3.719158643585855,
        -2.035725769255327,
        -1.2514460810993486,
        0.15123526316591057,
        -0.3647742613559452,
        0.71838528828268,
        -0.906610571873897,
        0.09370002789784082,
        -2.9397168803104656,
        -2.6501055213147544,
        -1.0744553035568807,
        -0.43917810026097703,
        -0.7641515183356861,
        -0.5781278888408199,
        -0.6972429745296224,
        -0.6565391451303811,
        -0.8391738408051256,
        -1.2508021251127697,
        1.077537865029774,
        1.5729907425798404,
        -0.1307419345583879,
        1.0627788813234427,
        -0.0031350367636702905,
        -0.5116174202868765,
        -0.021746197224028437,
        -0.027099853131374856,
        0.9816919214948179,
        1.0055920557599547,
        1.1433763290072814,
        1.537650583891849,
        1.423321595145091,
        1.8451654204800594,
        2.0310797224179424,
        0.7069717497758714,
        1.516813785303128,
        0.7648650282708385,
        0.5303744241479368,
        0.1742200573609007,
        0.5579686504142616,
        0.8308753598948573,
        0.6400419574332178,
        -0.7743163662333434,
        -0.11619682768642182,
        -0.7012800306042177,
        0.9722441138383959,
        -0.8654974689022985,
        0.33230554446388094,
        1.6030109068768843,
        0.8861640586710205,
        1.7306752207029488,
        1.236432803635415,
        0.5189317612383096,
        1.4451156639225389,
        1.8840205510092551,
        1.5469705331045958,
        1.5863564025945298,
        5.633244494920982,
        -4.137584569432257,
        -2.2583845585077644,
        -1.4319580541775663,
        0.22166802838813118,
        -0.25270668460862294,
        -0.6790183080293865,
        0.5508924404862519,
        -0.9527517856478394,
        -4.4921914889044166,
        -4.813632850012866,
        -0.07252077388340969,
        -0.36563437704731094,
        0.02799528638469061,
        -0.4124264189666633,
        -0.15381916177642052,
        -0.33773270488390633,
        -0.20015278592228514,
        -0.30982404718264545,
        0.5514268965824445,
        0.23822201747375507,
        -0.4692544624908113,
        0.8909233237125477,
        -0.1880743229281251,
        -0.6386991142144083,
        0.14126588869586137,
        -0.06994921647063351,
        -0.3507810977999053,
        0.8907538924918651,
        0.4207173233348925,
        0.9989732445641942,
        0.6966027587086883,
        0.9967828599293991,
        0.7361583767194941,
        1.4053699963079704,
        0.7792853781552641,
        2.027718641836767,
        1.9752056406271397,
        0.16655041540908172,
        -1.9937550230933223,
        -0.5775369339559505,
        -0.9426327745638734,
        -0.7643041934013711,
        0.8402223252629262,
        0.5825213930406761,
        -0.8376822970206802,
        -0.9279583081020681,
        -1.568354908106605,
        -1.5976987395685207,
        -1.1119540945558113,
        -1.0042345022326526,
        -0.5523195088000556,
        -0.7615335436965878,
        -1.8719138450840942,
        -0.3709269895634147,
        -1.372544723558145,
        -1.6985690554028898,
        9.957210602812154,
        -4.087354469795565,
        -2.5285648993269523,
        -2.207160144219391,
        -0.8054885239944007,
        -0.42863347058322215,
        0.04456185891293082,
        0.8115233088347591,
        0.8546194259112017,
        -3.7995006566868437,
        -3.310784545451477,
        -0.24240014350012684,
        0.03185854866605053,
        -0.23928766274799243,
        -0.49987130445855094,
        0.1479571960480262,
        0.36490418628289284,
        -0.44863285627860455,
        0.5889017107480599,
        -9.067866723985086,
        4.5689061767840045,
        2.7840816227435297,
        1.955480843328012,
        0.716704316031332,
        1.1285436068280914,
        1.199728286948709,
        -0.7735561987006473,
        -0.7414442056388002,
        0.945606018206863,
        1.2011494038325181,
        0.5468225228650659,
        0.18819375086669665,
        0.09980673090898713,
        0.389889262872158,
        0.46913317533549886,
        0.6987634882940824,
        0.4992557064091305,
        0.28912031554373807,
        9.912346035005543,
        -4.076007908381593,
        -2.6835108930573033,
        -2.1689067198333345,
        -0.6649055643549749,
        -0.3460490943901178,
        -0.43549997189690287,
        0.37607683956716015,
        0.13232263955107815,
        -4.1010064801951,
        -4.750605151475281,
        -0.4307091507355171,
        -0.12730124296230716,
        -0.03937155687530294,
        -0.6576155814712159,
        0.9351961229454571,
        0.4762902949267964,
        -0.37248078729420436,
        0.6190974813613996,
        -9.899298055840264,
        4.86226961388048,
        3.295312409507608,
        2.686719028554433,
        1.672634613480902,
        0.7266599370961376,
        0.4040890363662944,
        -0.37135950368572057,
        0.7403820605992231,
        1.141893962425821,
        1.0238758897188627,
        0.5672660054552204,
        0.3033545496185868,
        0.38618063369180017,
        0.29915744713035675,
        0.2017519940865277,
        0.24871069217367808,
        0.30110963048846495,
        0.22013614375563487,
        -9.540979392581917,
        3.942407253877406,
        2.018557884280451,
        1.3230779529888201,
        0.6541381143123678,
        0.34289607100947783,
        -0.0762877491656116,
        0.14621324762733579,
        -0.4163972520649919,
        0.4967778846903696,
        1.008715904918196,
        0.07994922283542086,
        0.5552040426661109,
        -0.0630126899553033,
        0.2647909398300017,
        0.30805428223386566,
        0.26063087976262206,
        0.055133401256823436,
        0.6257931364744952,
        -7.134973787625705,
        3.4445707396897056,
        1.964646353036447,
        1.1617181048033975,
        -0.10023079257771106,
        -0.10137955791573174,
        0.16597462813503833,
        -0.8560907640351857,
        0.2389891551737191,
        0.402083718659979,
        0.45538611880030383,
        0.4302424381509149,
        0.3530461120607058,
        0.2143504857149218,
        0.30349422224214917,
        0.31101626333221766,
        0.4306108125203739,
        0.6060666578120044,
        0.6910723557499973,
        -0.8023550727016053,
        0.14106187903488748,
        0.5823960402052709,
        0.23673177386282218,
        0.5708455450210614,
        -0.5557894290996149,
        -0.36806293829651054,
        -0.9748477707889324,
        0.39584911317306504,
        -0.1959389223747248,
        0.09413415854034261,
        -0.9844933073054905,
        -1.3710885785604165,
        -0.8865820303692696,
        -1.0434561559923767,
        -1.19841506882813,
        -0.6165892541733883,
        -1.4410170440671148,
        -0.6450705374973301,
        0.738403149685028,
        1.1877574110210418,
        0.04503622408672029,
        0.34320116154508296,
        0.7848692912329319,
        -0.12452177917837184,
        0.40118265613801435,
        -0.0750731624774878,
        -0.5736014227777948,
        1.6651051022783452,
        0.7770797682588966,
        0.5310400656074991,
        0.5174613790200152,
        0.41139895755057343,
        1.7356428909147086,
        0.36234560357795564,
        1.0251277006599033,
        1.4536474705063538,
        1.2148784147156508,
        10.64471288099929,
        -4.550914541706945,
        -3.0382657143147127,
        -2.389490906355223,
        -1.096498088698422,
        -0.23627141585192898,
        0.09034517350275317,
        0.7114800349581445,
        -0.7312376819051665,
        -1.2875540849726506,
        -1.2438409579560847,
        -0.2874964268770629,
        -0.3093811051997191,
        -0.10756496496014409,
        -0.5072113770269359,
        -0.2840106194843226,
        -0.09959690964435826,
        -0.18977904236403406,
        -0.41991576368752387,
        9.4085708028172,
        -4.547107665318773,
        -2.8859649507782086,
        -2.2123564986238544,
        -1.0680581871305863,
        -0.6112711743582304,
        -0.1319321721527698,
        0.6774770129513904,
        0.1809432177069994,
        -0.9751809288503702,
        -1.275620172337153,
        -0.050153038711473225,
        0.08311574857062257,
        -0.24250733905062194,
        -0.19369838108151036,
        -0.4285697009675408,
        -0.06398278698193838,
        -0.45728139842858584,
        -0.1840455190038551,
        -1.028531477235172,
        -1.326797408386369,
        -0.23555005868711346,
        -0.5763010762988233,
        -0.6624091799689346,
        -0.23283473707945615,
        0.39158133234794024,
        0.13433515022875717,
        -0.009122757041722274,
        -1.4949889436296993,
        -0.6443452658817634,
        -1.591298144825405,
        -0.7610986472461074,
        -1.0896133540142738,
        -1.3262022562849438,
        -1.258375427979157,
        -2.143958325623924,
        -1.0556222565214168,
        -1.038780299847046
      ]
    },
    {
      "type": "SimpleMatrix",
      "cols": 57,
      "rows": 3,
      "values": [
        -0.7799197613115262,
        -0.5011173977336606,
        0.533953613062662,
        -0.3025706743290601,
        0.9260162289841462,
        -0.03246990088315694,
        0.5224274223130858,
        -0.14338589793358092,
        0.3657447732226481,
        0.5954265889613597,
        -0.7149414921782934,
        -0.5465213838379925,
        -1.0096661927523922,
        -0.7614388661660823,
        -0.311922145570996,
        -0.21020755785274622,
        -0.2611094900376575,
        -0.2756563356763276,
        1.1787563992466341,
        0.6321081698570262,
        1.0450233941329028,
        0.09486629438756393,
        0.9810214288822237,
        0.8740383717682857,
        0.3940426372517061,
        -0.5691941381595912,
        0.30467081562228143,
        -0.7079459667614971,
        -0.7941998605211052,
        0.7121851833781065,
        -0.19455722208005682,
        -0.6604347923330378,
        -1.1603646770153921,
        -0.33455653217409687,
        0.13189853088596906,
        0.07410446555027189,
        -0.7202700972715981,
        1.2206970520772038,
        -0.49692189816010424,
        -0.3926002340709482,
        1.397696764157605,
        -0.8034103434447598,
        -0.7489227687220509,
        2.089184390650855,
        -0.8137717395419354,
        0.5557751729265475,
        2.216607283940651,
        -0.9255749604362649,
        2.3824952387880853,
        -0.6346447604819946,
        -0.2780312462205609,
        -0.44717588913506445,
        0.015516357529895282,
        -0.6140194865085861,
        1.062703087323348,
        0.7889497879586569,
        1.0084135457312642,
        0.1607140675019806,
        -0.505751917592289,
        -0.5157209475646833,
        -0.09266193342596495,
        0.7852765125120501,
        0.6758435492773301,
        0.6761779420300404,
        1.9170340328569766,
        0.4448997619374859,
        -0.03648394646818044,
        0.2350122848697276,
        0.20873173029418468,
        0.20746783842323668,
        0.16007948370441177,
        -1.3031495909981303,
        0.774442086609544,
        0.2989998551249924,
        -0.6936962254678188,
        -0.936321243065563,
        -0.11209774307748598,
        0.5122085713390087,
        0.34894954901726183,
        0.3603949958725412,
        -0.6463993159161424,
        -0.6681449219503708,
        -0.1002995898615519,
        -0.8544404674016869,
        -0.5578441080780508,
        -0.3892850903003569,
        -1.1323275693527117,
        -0.15175817804798958,
        -0.8904357920057133,
        -0.08830189840900446,
        0.44013554887174516,
        -0.054416007646421564,
        -0.09035163226378032,
        0.009247961817111532,
        -0.4575349544124886,
        0.3647915455350518,
        -0.9947233424953081,
        -0.15269269196673202,
        -1.2284427074367317,
        0.2972031497539894,
        -0.3568332595516403,
        -0.42549084187765074,
        -0.08192767332547014,
        0.5293082474691062,
        -0.1678568255450928,
        0.8840623270896818,
        0.5625255696787749,
        0.9796165938040934,
        -0.6373296003376011,
        0.6509884997592806,
        0.48163348729836464,
        0.16086297358272347,
        -0.43683319189390624,
        0.0906055048690649,
        0.09028497587010374,
        -0.7028717847926506,
        0.050451172646212385,
        0.9575785258032178,
        0.37344051964643565,
        0.9672701533942123,
        0.4115809355605658,
        -4.8111362914521765,
        -0.20123289815884396,
        -0.012306059833593204,
        0.9561716397832771,
        -0.4996645340375661,
        0.112381336858153,
        0.09553929705298259,
        -0.6092627606034039,
        3.9652931524997457,
        -0.41555492195914767,
        -0.14936987360340934,
        -0.1738862755410296,
        0.3296987808846943,
        -0.8583085646765402,
        -0.2522437620544688,
        0.48048695449979945,
        0.6226201442452565,
        0.006095718486982985,
        0.7198561597728257,
        0.9321204276685208,
        -0.015155188777815338,
        0.07402832568918954,
        0.7532695764953233,
        -0.26059358306033786,
        0.4621688973760964,
        0.0829588407952892,
        0.12505612731474713,
        -0.3950272882706625,
        1.0521924338851758,
        -0.38367106052622335,
        -0.03210471611043851,
        -0.7371658808223778,
        0.06309357038931893,
        -0.00772274249897542,
        -0.3661051289595257,
        -0.16161488999239618,
        -0.03574003355286493,
        -0.5174599952024782,
        0.02184253133975503,
        -0.14278543066982133,
        0.17488171105826816,
        -0.08199796849094304,
        0.7575257165310189,
        0.4395622702108957,
        -0.011427375040532557,
        0.10072241451817142,
        0.08577051062485705,
        -0.6141007373429322,
        -0.28842271666106234,
        0.4855839888113937
      ]
    }
  ],
  "biases": [
    {
      "type": "SimpleMatrix",
      "cols": 1,
      "rows": 57,
      "values": [
        0.8503815188997792,
        1.6953852455408889,
        -2.3927639967039553,
        0.7875028863807029,
        -2.4485777069770918,
        -2.1983887750880102,
        -2.3932817567120455,
        3.488164594118267,
        -0.8624971738037605,
        -1.4086444173596744,
        1.1001320264294223,
        2.256977999148946,
        1.988694025822995,
        0.8959051811403507,
        1.3758700136815838,
        -0.39215298976958524,
        2.7272713826910984,
        2.382658250969601,
        -1.4433149113599464,
        -1.6309090730817728,
        -1.0136655972924595,
        -0.737723619628985,
        -2.760092959270934,
        -2.136818003668079,
        -1.943138477721196,
        0.9829281618424734,
        -2.2477526672992063,
        1.4183381134671453,
        1.0549326965247827,
        -2.426734182036006,
        1.0589619172868796,
        1.21357269943,
        1.7743970086566359,
        0.7159785811994589,
        -0.8681711623907461,
        -2.144479366270966,
        1.5005133949393636,
        -1.1956076932910866,
        2.305490108141959,
        0.7519622187905879,
        -2.563997266088362,
        1.5698309477557217,
        1.8097094247546177,
        -1.4521309750512965,
        3.1372071225032827,
        -1.0202482865442632,
        -1.5849561107439243,
        0.6339972052275261,
        -1.140868887589836,
        0.40802166710255594,
        1.0412288369237472,
        1.5483498560083724,
        -1.2728979433144447,
        2.3189906989277875,
        -1.314403505275123,
        -1.4163539801378158,
        -1.8389779612948374
      ]
    },
    {
      "type": "SimpleMatrix",
      "cols": 1,
      "rows": 3,
      "values": [
        0.11121316336126709,
        0.3958318662952515,
        1.1762887977799141
      ]
    }
  ]
}