{
  "config": {
    "inputNodes": 4,
    "outputNodes": 3,
    "hiddenLayers": [
      12
    ],
    "learningRate": 0.1,
    "activationFunction": "SIGMOID",
    "seed": 5692071836599064189
  },
  "weights": [
    {
      "type": "SimpleMatrix",
      "cols": 4,
      "rows": 12,
      "values": [
        -6.0473015797915775,
        -7.977179162664488,
        2.3504026335048844,
        2.560158567655205,
        9.918456578039509,
        13.699671278235215,
        -3.181772238427287,
        -3.8186996301230245,
        1.6208743175772606,
        1.2792436307025727,
        2.1919655519381642,
        2.4078329141252217,
        -11.503930697094242,
        -16.47708417895581,
        4.069581053003922,
        4.474063601673428,
        2.2098076366529127,
        1.4158827221320351,
        1.9296588232755834,
        3.0316284301148593,
        12.578682813823647,
        17.852253722391474,
        -4.224666677290228,
        -4.697336479071886,
        11.467056439154948,
        15.622130651975903,
        -3.832424603479388,
        -4.425830769165239,
        -8.658183036558752,
        -11.885444486435132,
        3.0677327254244853,
        3.3857958924979648,
        0.9472109488222029,
        2.39684461587926,
        2.5712837601459304,
        1.7270545853688029,
        -1.6504413326973497,
        -1.6782294948103444,
        -1.4815341223430238,
        -1.5654024231721684,
        5.869514637738449,
        7.903763910598326,
        -2.025491292162307,
        -2.361473484954136,
        1.3081234556896653,
        2.0590077206784376,
        2.508193407657984,
        2.323615887024928
      ]
    },
    {
      "type": "SimpleMatrix",
      "cols": 12,
      "rows": 3,
      "values": [
        0.20956952245242041,
        -1.5318217172053206,
        -0.24142514212363614,
        1.5738698483752929,
        -0.3443912179091355,
        -1.6953639734344357,
        -1.6736851584293928,
        0.77718945409009,
        -0.7633691297594324,
        0.7777223562758032,
        -0.2524714633406309,
        -0.4853238373260922,
        -0.4606691676068581,
        -0.7769642145466532,
        0.49092510572660064,
        -2.374306128617592,
        0.8319719543410136,
        1.88821750489544,
        -3.102257521037002,
        1.3036258286627473,
        0.3496495788205458,
        -0.01459829049674462,
        0.36110913188603727,
        -0.19586375816518398,
        -0.19882433275304837,
        0.8115658283455839,
        -1.0753745411638906,
        -2.268471737406626,
        -1.3546782617073028,
        3.0703420703795707,
        1.2160625382667651,
        -0.758376412733768,
        -1.4564689283204264,
        0.6580118082210807,
        0.23052172898616113,
        -1.0926271026143834
      ]
    }
  ],
  "biases": [
    {
      "type": "SimpleMatrix",
      "cols": 1,
      "rows": 12,
      "values": [
        4.873985307817201,
        -8.582450722176592,
        3.7500149017598607,
        11.218250949323131,
        3.5894792655362586,
        -12.246275179040328,
        -9.437476342547694,
        7.353484978759649,
        4.234583447350551,
        -4.281612001522261,
        -5.068503615133156,
        3.5791684349729933
      ]
    },
    {
      "type": "SimpleMatrix",
      "cols": 1,
      "rows": 3,
      "values": [
        -0.3548155712517343,
        -0.04535990861069615,
        0.06372983568419513
      ]
    }
  ]
}