{
  "config": {
    "inputNodes": 23,
    "outputNodes": 3,
    "hiddenLayers": [
      69
    ],
    "learningRate": 0.1,
    "activationFunction": "SIGMOID",
    "seed": -8949537068820706464
  },
  "weights": [
    {
      "type": "SimpleMatrix",
      "cols": 23,
      "rows": 69,
      "values": [
        10.24474169938058,
        9.961204981357554,
        -4.81845959115846,
        -3.72653875698766,
        -3.8559839513858654,
        -3.421974156279899,
        -3.442912291086019,
        -0.9593700758118945,
        -0.8549211126118023,
        -1.0495931650446706,
        -1.0472519339602666,
        -0.30840978885668,
        -0.27386211901150564,
        -0.1915186445783586,
        -0.1830641959235384,
        -0.2860219969404305,
        -0.31040102295332805,
        -0.22031081997659513,
        -0.2877418201515031,
        -0.3015322301100985,
        -0.26285513844667363,
        -0.3193331892972687,
        -0.2627096573788037,
        0.09995616820408658,
        0.6431853045222181,
        0.24447716036108158,
        0.8808410386194186,
        0.08835021225392758,
        -0.5182288425028163,
        -0.5134061016879873,
        -0.9639108860414562,
        0.9464642625080812,
        0.40494478555752883,
        0.007457351243012005,
        1.2083579147175068,
        1.3977811383419865,
        0.6059070948520006,
        0.32020062092764795,
        1.3511572044230653,
        1.5501818595816912,
        1.8913062484196148,
        1.3808624258154356,
        1.1841335809500222,
        0.834081790862901,
        0.5592989579578358,
        1.5902923861771687,
        -15.297604211114557,
        -10.546137305234542,
        5.365477579928205,
        4.503936935890172,
        4.327177073727042,
        3.5844761222437715,
        3.9498362643159375,
        1.6168720885472079,
        0.9676824918604459,
        7.95754828809057,
        8.02397093648022,
        1.382995306528972,
        1.170670568654599,
        0.9089127749168957,
        0.7732242434403609,
        0.7771025925021378,
        0.054775855919049626,
        -0.9544419824812836,
        -0.9013063587241275,
        -0.7775507617180606,
        -0.7470017928867356,
        -0.40510242877217023,
        -0.05003128725862314,
        -10.432896431101243,
        -9.837737549515815,
        5.295360699591519,
        4.013107821706492,
        4.105671251679089,
        3.5787201713184786,
        3.6408604023023208,
        1.4510545868938933,
        0.23498819232338763,
        1.2786169350313812,
        1.205069260675052,
        0.2818154995055505,
        0.21994512135967312,
        0.22307576248954297,
        0.23940202476003583,
        0.1507800451441271,
        0.2410594404480421,
        0.16067185550287885,
        0.11315077131924327,
        0.0707424148549241,
        0.10354518628345685,
        0.2459503478663969,
        0.07946773371755057,
        6.000236868112403,
        0.23037037434964808,
        -2.3451114438646607,
        -0.9212390138837485,
        -1.1444144068249202,
        -1.547604725536241,
        -0.6845569149961795,
        0.6728128138269063,
        -0.6209029855838946,
        -3.34748109180123,
        -3.7141431183585616,
        -0.3762158985767098,
        -0.7658891952107811,
        -1.0682310440178988,
        -0.3703842399757327,
        -1.1114431540621517,
        -1.0675433030429686,
        -0.7103956870070823,
        0.19003221884223767,
        -0.8111265934699907,
        -0.5980096133426884,
        -0.4051597746602037,
        -0.32295095752794345,
        9.825122162680032,
        9.498458489969433,
        -5.130456097648152,
        -3.737148917325606,
        -3.8607939019216677,
        -3.525370219825962,
        -3.2538560804664876,
        -0.5280165822622547,
        -1.1704016765698237,
        -0.9951386290639742,
        -0.9393771496322734,
        -0.28501279704116445,
        -0.2776117013246856,
        -0.2767358599434882,
        -0.2569684325044712,
        -0.1944155425925332,
        -0.33322807426732864,
        -0.3426983484020398,
        -0.32597818151496033,
        -0.14150051616135295,
        -0.2602001862481535,
        -0.34462347905585117,
        -0.18541979266327585,
        0.19134780527504505,
        -0.17580579548721556,
        -1.7765854628559568,
        0.12607183596107419,
        -0.17332521636370665,
        -0.9697728715907419,
        0.16294145248251946,
        0.00909569147832621,
        0.6058118505021012,
        -0.7776275578896462,
        -1.2697442367761729,
        -0.4490390158334337,
        -1.4901115424379814,
        -0.5841307635461372,
        -0.15340314633719107,
        -0.3174135358478176,
        -1.259238421471873,
        -0.8645786143183117,
        -0.49605217633777393,
        -0.7955921175928241,
        -0.55077880819169,
        -1.7984307425496042,
        -1.5016860393044442,
        13.964432338327175,
        9.701451882238045,
        -4.940846231278111,
        -4.0482255514742045,
        -3.9932048698308136,
        -3.3284025470492398,
        -3.601025706572423,
        -1.2716487408746135,
        -1.2259529610190159,
        -7.234656191129819,
        -7.17554091022963,
        -1.0652063317898108,
        -0.9126800758935323,
        -0.7292791010418501,
        -0.6084680323132176,
        -0.6555821926219734,
        -0.005936197077986785,
        0.8515911773971399,
        0.8349683633911686,
        0.7496957386337106,
        0.6917783740944814,
        0.43751893485114834,
        0.13177423325452248,
        11.663239470674677,
        8.143288957633345,
        -4.431634933877307,
        -3.3024303188374726,
        -3.4885111441742,
        -2.9288114535925778,
        -2.9242914844381085,
        -0.37477897296873797,
        -0.4937029471475163,
        -5.721156063684192,
        -5.713537439319592,
        -0.7798200242520413,
        -0.5989947012515541,
        -0.4336032163966296,
        -0.4285252816993473,
        -0.527832669922082,
        -0.027555394151192476,
        0.6158784838057766,
        0.7319089031619449,
        0.6448393751838993,
        0.592552178351191,
        0.3997858726563054,
        0.1209337463009128,
        10.502379017327252,
        8.671608808225386,
        -4.7225789967096485,
        -3.329826754301278,
        -3.470417046692793,
        -2.980652750783898,
        -2.8638860288503323,
        -0.48952556141456544,
        -0.3582270500395025,
        -2.329089460689447,
        -2.27740460944868,
        -0.42393841879484884,
        -0.21519876868728513,
        -0.3459986265545001,
        -0.21297015877052244,
        -0.3095280748381359,
        -0.19132660850187436,
        -0.10884456690616509,
        0.12926942141466405,
        -0.06799802497459355,
        0.0013354704203469465,
        -0.05727376498387997,
        -0.17789561155748887,
        -0.5841966453542741,
        -0.6358226078926353,
        -0.04353315033186306,
        0.3134756260454742,
        -0.36304297516439427,
        0.49842664832388883,
        0.3959554260337235,
        -0.19772609567070962,
        -0.3058001086405938,
        -0.6767763497129142,
        -0.35873540071577875,
        -1.4150911780241238,
        -0.8669062891894111,
        -0.8478866657349929,
        -0.8384698577877768,
        -0.17326796212939063,
        -1.2949171426617552,
        -1.1380431476626633,
        -1.4313676128416841,
        -1.0821561007000822,
        -0.5091733881457376,
        -0.9519974967489583,
        -1.274853337427065,
        10.669042157012383,
        10.251027368987476,
        -4.736149152116535,
        -3.4820502760461665,
        -3.66509836096695,
        -3.2090263217496555,
        -3.314967107395705,
        -0.7265437434208251,
        -0.24191457051670928,
        -1.1389617065274082,
        -1.176327685856018,
        -0.30547864682576503,
        -0.16782008732083617,
        -0.28463581734282184,
        -0.256047259811921,
        -0.24644772449204286,
        -0.22813100391682098,
        -0.22671127001936076,
        -0.3066220282167027,
        -0.25573487591188243,
        -0.33062495528020475,
        -0.36044549670103837,
        -0.2829906533815069,
        0.3812947808000812,
        1.7148804043424812,
        -0.359915139349048,
        0.9760292258426085,
        -0.23684906098775468,
        0.2972853110468785,
        0.7881488204580424,
        0.7917936399591895,
        0.2836538357783437,
        0.2684281727810752,
        1.0358665090975554,
        0.3194571840206782,
        1.0467917271283522,
        1.4723643560541173,
        1.6567534972180633,
        0.2919193387857618,
        1.149496288554757,
        0.9987822704527041,
        1.0613977026069537,
        1.2601002457479744,
        1.3188918374492344,
        0.728838657933921,
        0.8669877604226689,
        -1.1520900368640326,
        0.36262540648558234,
        0.707850252646316,
        1.0844509973375134,
        0.8744289699501464,
        0.956153949609072,
        0.4852387894971815,
        0.21917223789330686,
        0.49227200298574975,
        0.7446916831101313,
        1.0481246458482538,
        0.7088341093494354,
        0.20559570999479354,
        1.2717913573126118,
        1.5009680834925845,
        0.9518726634882527,
        1.7781371525942065,
        1.5859716529921846,
        0.49948082303065994,
        0.7037144321882386,
        0.17445030442733603,
        0.4191026898584945,
        1.678609763239024,
        -8.672679768603702,
        -8.489123145206776,
        4.222096982451725,
        3.4204340305234595,
        3.4982719048158044,
        3.3245708558660447,
        3.2206569506963274,
        0.4139725225904875,
        -0.5073482733337122,
        0.8908325293791501,
        1.1584320428045922,
        0.09944955961378889,
        -0.011217374098629627,
        0.033994602596652046,
        0.0335096284705159,
        0.16230579687976826,
        0.16367700378136443,
        0.17282471642328961,
        0.29713775697475686,
        0.04262735427947599,
        0.24970173224236772,
        0.1470963197938508,
        0.28461843414945515,
        16.000965343653487,
        11.146615020533682,
        -5.540220225133366,
        -4.9010577005256675,
        -4.634035589613855,
        -3.98332480951823,
        -4.398850224245892,
        -1.6003134050287997,
        -0.3536477273819589,
        -8.467698412105877,
        -8.35052151951546,
        -1.2032161100311782,
        -1.0329632515019929,
        -0.8907680498781263,
        -0.7195342532013415,
        -0.6366320829652513,
        -0.2700130361090527,
        0.7826069891498033,
        0.839609311844673,
        0.9495447329615913,
        0.8250438638849635,
        0.36581015332302935,
        -0.05089731072761183,
        -0.04440937068192655,
        1.0178178277977876,
        0.7233273598575456,
        0.22198785829435555,
        0.8212462762957786,
        0.29510479569076,
        0.8759813083686611,
        -0.10269902176144574,
        -0.6827760489698508,
        0.16089517067753556,
        0.949581595689031,
        1.5756118158914973,
        0.4785276978837469,
        0.46878395816865137,
        1.498981556359365,
        1.059990709706987,
        1.195366237696549,
        1.0964001703499797,
        1.6508205564590503,
        1.4167513851867377,
        0.12035074122621775,
        0.3969765280194935,
        1.3535390440308477,
        9.513376096254492,
        8.775241166538379,
        -4.738022028024362,
        -3.5446496912068577,
        -3.5707998822248546,
        -3.0404345683114418,
        -3.135869859748313,
        -1.287162740349695,
        0.5117401208565948,
        -1.3674174846947482,
        -1.332752894895789,
        -0.3604464875497473,
        -0.18773845997565228,
        -0.33952919260255804,
        -0.11716203074295341,
        -0.20169124662914184,
        -0.2984248316828664,
        -0.08407371916163046,
        -0.2699737020295615,
        -0.14757337905180634,
        -0.13045370748575957,
        -0.16916119488149756,
        -0.2895610529398257,
        -0.8690380288796719,
        -0.4388589558774226,
        0.12615485154692305,
        0.3776046270515201,
        0.5879847549434076,
        -0.7634588223590083,
        -0.1809674165516088,
        -0.46907178956683077,
        0.5879396326434111,
        -1.3862467086437278,
        -1.2028038586629166,
        -1.6275877551958136,
        -1.0283173874481857,
        -1.4854353984769753,
        -0.45371335407883023,
        -1.0307790377388257,
        -1.052730084205766,
        -1.006600470277871,
        -1.5753480555109949,
        -0.619694974598097,
        -0.34687681806035375,
        -0.8471282438460747,
        -1.677327082351752,
        0.9790601847194116,
        0.8972263458889119,
        -0.07451324668238377,
        -0.38022991011151097,
        0.11521882070719498,
        0.27291990489299744,
        0.7606819758837645,
        0.9820210066813558,
        -0.7456215256110816,
        1.5350026588977093,
        1.3199425299209422,
        0.6730661315451764,
        0.8437344240746737,
        1.0601781304068116,
        1.172157300530807,
        0.13596487947526656,
        1.7455566898378208,
        0.7140180917132224,
        0.9567238092659252,
        1.3969136675147245,
        0.8946014870113945,
        1.6073088824768853,
        0.27713914096893155,
        0.05283777888616375,
        -0.3250621762421261,
        -0.6427724119047556,
        -0.5486732585012463,
        -0.7008062812713127,
        -0.12179295543785898,
        -0.42990042556722224,
        0.7302944533048111,
        -0.0991955562226172,
        -0.22009888809303216,
        -1.7009501465894594,
        -0.885475859666049,
        -0.8306985919110255,
        -0.7541515619934892,
        -1.389226620269279,
        -1.244561958141507,
        -0.8440479977913637,
        -1.6715087289798776,
        -1.4663144788169795,
        -1.004170945098229,
        -1.7509578318289014,
        -0.24610119062716374,
        -0.9692758352603904,
        0.31853396716523535,
        0.023936117741147084,
        0.44529439671597687,
        0.07935596843379966,
        -0.48245081892554864,
        0.6763937250243418,
        0.044644850900387036,
        -0.4188146449065568,
        0.08175343962825168,
        -1.05843433890849,
        -0.9319403204063003,
        -0.3978158043168485,
        -1.6761227323288188,
        -1.43313843654996,
        -1.4645864654989031,
        -1.339503559734453,
        -0.989219201635405,
        -1.339759586574078,
        -0.8529753165793538,
        -1.5648417189887693,
        -1.7388079863005608,
        -0.8657207335312036,
        -0.19403857674746605,
        12.802915080054778,
        5.465616851288984,
        -4.917208860205944,
        -3.407440788241357,
        -3.323745632397944,
        -2.8393243952676306,
        -2.927352664958246,
        -0.8020454840590522,
        -1.0844247917914795,
        -6.290909963213756,
        -5.4568456127231455,
        -0.4860341798807852,
        -0.33930250766536524,
        -0.39941230609579853,
        -0.5740952644443668,
        -0.6650893347087277,
        -0.1498449730135749,
        0.5498299447354301,
        -0.7000842221273982,
        0.2504740439156704,
        0.3342490622025787,
        -0.048505800600975466,
        -0.29670992554789016,
        0.2789682017175665,
        1.4326110179093234,
        -0.3214658811976158,
        -0.3906337004576875,
        0.7846375305820592,
        0.9223820907329415,
        0.7504786713816008,
        -0.7850313898771702,
        -0.10862965236695664,
        1.4872187326074273,
        0.5271002584684176,
        1.7561232379754468,
        0.9602730542053137,
        1.5976980727692305,
        0.3896431054391978,
        0.8924175625276738,
        1.7251311518214576,
        1.6587011666282547,
        1.6677557061956099,
        0.421129979285676,
        1.310309433152066,
        0.9868795324578203,
        1.536315844756146,
        0.46140826175047367,
        1.197953875045899,
        0.09617242359036049,
        0.4536306209524051,
        0.261225209268175,
        0.8034642348578712,
        -0.1832705600736705,
        0.47291814137332144,
        -0.5177276285698202,
        0.6307934162031762,
        1.6128236341273834,
        1.2163258717042444,
        1.5742875098904932,
        0.9009139124138681,
        1.4964869947128316,
        1.5500295603971352,
        0.7747713256536178,
        1.716646141415746,
        0.9104911071228625,
        1.3414374058672875,
        1.0421362049029521,
        0.47518346170506626,
        0.8404420833474202,
        9.315755094564642,
        8.939438013823057,
        -4.900052143005002,
        -3.542750185259924,
        -3.7703134223924275,
        -3.2719535701182996,
        -3.162254538329522,
        -1.4642085820127047,
        0.2754969725493551,
        -1.0515035352009303,
        -1.003823826417059,
        -0.13242308439735545,
        -0.13079999241906773,
        -0.21112418936726657,
        -0.17964617672624317,
        -0.17547349169070015,
        -0.17991934396908807,
        -0.08388337691512252,
        -0.11868229334734813,
        -0.1938016104091696,
        -0.12431371675540312,
        -0.15479293865440213,
        -0.21182895671801727,
        11.805878189478003,
        8.3366375562741,
        -4.561704110429189,
        -3.331681777415154,
        -3.555341530613144,
        -2.9845143924495976,
        -2.9670489773547977,
        -1.297864874639988,
        0.2645074319970065,
        -5.088686959178069,
        -5.550018781166829,
        -1.041856208378887,
        -0.6049863818141834,
        -0.265782714809832,
        -0.3830202095899239,
        -0.24707926611937664,
        -0.3826964941057376,
        0.4346676753030801,
        0.7228798106634835,
        0.585686185539567,
        0.6598271243183682,
        0.5842011621198889,
        -0.1773558702684011,
        0.8318472206446625,
        1.1101677939082752,
        0.1927831717292407,
        0.03438835690933228,
        0.12764006365401856,
        0.8998469905270149,
        0.713460281914574,
        -0.6955428105318758,
        -0.3059030421216525,
        0.38199180388712,
        1.464844520621837,
        1.1006846444530245,
        0.892202703791913,
        1.7717774770726475,
        0.683959844010988,
        1.2462595827203655,
        1.868478439683793,
        1.5121377241818392,
        1.0257760139589203,
        0.4764003743576098,
        0.6013998380571374,
        1.8135561856020548,
        0.3811266347297292,
        -7.783858547478729,
        -6.531553431518238,
        -2.18083101700048,
        -1.345558050068584,
        1.9383492475726567,
        2.7304653105280625,
        4.761588512803179,
        2.2343483095694463,
        0.6844483308069541,
        3.0417794900039494,
        2.756914937028141,
        0.5619234722353048,
        -0.8606160767939921,
        -0.2875873600940752,
        -0.18034619122621925,
        -0.2215565426025182,
        -0.20883099461576216,
        -0.6962179293232956,
        -0.4864472658808601,
        -0.15361416124224855,
        -1.0793952813853067,
        -0.2642465783885907,
        -1.056820655373632,
        -0.26381054723585706,
        -1.2200623163641116,
        -0.5934411512503281,
        0.8720708027772874,
        -0.09286691178514922,
        -0.4483728253969242,
        0.361581531392523,
        0.7117214573572268,
        0.2242041383153599,
        -0.9904300182603372,
        -0.977876719272647,
        -0.7229170473381542,
        -1.5525426622087235,
        -1.2639075982679302,
        -0.3423518127338508,
        -1.4394092621927836,
        -0.4562878735844772,
        -0.6817944057175443,
        -1.3857274689469088,
        -0.3857355267444969,
        -0.4724070850771492,
        -1.1532711204261337,
        -1.1438367073547482,
        -0.48016002176208133,
        -0.228727993197776,
        0.8867836049652047,
        0.8718515316125244,
        -0.4859017872045617,
        0.5068116106255913,
        -0.8499505215566855,
        0.09001511359506682,
        0.33822475048232614,
        -1.0760745203757252,
        -0.21533943032558298,
        -0.4242389094690407,
        -1.1825260433502047,
        -0.7459201282352077,
        -1.1016092391962335,
        -1.0044586893484728,
        -1.2149518402230692,
        -0.9214268543281537,
        -0.45503213123724223,
        -1.494229721232011,
        -1.0761536321015293,
        -0.09682348664009334,
        -1.4931015476573168,
        -0.04634497546447129,
        -0.7246197527936952,
        -0.5174234416255551,
        -0.4548960488314807,
        -0.9481737558802237,
        -0.5185023300029704,
        0.9363794195692134,
        0.41451724599203904,
        0.9128937200511079,
        -0.5108194643105886,
        -1.3282810118977695,
        -1.5052104819295489,
        -1.1992983769949128,
        -1.5682356507112656,
        -0.9760380623583604,
        -0.7284686938194197,
        -0.414597683588529,
        -0.8641140298907641,
        -1.8547730091022259,
        -1.0137930746940762,
        -1.1911937207700813,
        -1.0748185091563371,
        -0.7857755477330848,
        0.11743227323521112,
        -0.02397329324624205,
        -0.025881500294172084,
        0.03970808758859323,
        -0.13568797079478198,
        -0.16123760752481744,
        -0.08932267054910933,
        0.7943472158659343,
        -0.9181907267594719,
        -1.8739279745068549,
        -0.907000216687127,
        -1.319498946528809,
        -1.6251151852760577,
        -0.9826930444317798,
        -0.43927826760405325,
        -0.10528208825406744,
        -1.1788250502069233,
        -0.42996623171949344,
        -1.1195759434267027,
        -0.8311238625422281,
        -0.6274313045968983,
        -0.5543183048687204,
        -1.825308514543603,
        15.495321218888197,
        10.633655900763147,
        -5.680492211673649,
        -4.813588056910544,
        -4.613526136517273,
        -3.9394952368801412,
        -4.311918355481989,
        -1.460798814310068,
        0.012683611631750179,
        -8.106718025232835,
        -8.163553321098284,
        -1.6188515248814417,
        -1.3333372885437988,
        -0.9563879162613015,
        -0.9426893332170323,
        -0.8852744606348089,
        -0.07419113746921698,
        0.9259002599943508,
        0.8725390789381926,
        0.8535182945608684,
        0.6949789233735756,
        0.3375668381887237,
        -0.1323432166900919,
        -1.504425710558475,
        -1.61600241564318,
        0.8761325803901826,
        0.7111915801753783,
        0.9563139125229198,
        0.9915894697703934,
        0.6496032244829693,
        0.6477205899662798,
        0.12858013857497957,
        -1.0340446542529542,
        -0.4955691991311298,
        -1.501668457674074,
        -0.46995727353452577,
        -0.10214901112161376,
        0.20141054451736862,
        -0.6128704749915329,
        -0.9823289746525338,
        -0.5952203292650624,
        -1.3812804973315331,
        -1.2088147400741145,
        -1.4356441935280408,
        -1.185046408047021,
        0.08432913630586132,
        0.3284196123531767,
        -0.3271041656468359,
        -1.3579547646003869,
        0.4232520578759246,
        -0.8300514001681532,
        0.4941492141047818,
        -0.09646375425408192,
        0.916504227416056,
        0.5157454472755804,
        -1.758022236115324,
        -1.270395976730854,
        -1.1895141491460925,
        -1.701280143113062,
        -0.6415269725458502,
        -1.4750257935554367,
        -0.5051338701749649,
        -0.8371160673500561,
        -1.2385054681012506,
        -0.6000415411150016,
        -0.9775090834519046,
        -0.6610421583979701,
        -0.8830893772888169,
        -1.372986634579463,
        1.1324333985010877,
        -0.49979539408652973,
        -0.38371156386810973,
        0.043859446389144664,
        0.07369330610542928,
        0.42093357367396483,
        0.3437424802820746,
        -0.7053969686714967,
        0.2827161578639959,
        -0.9221352951818635,
        -1.6630741960400675,
        -1.5044615392620313,
        -1.0652206857198379,
        -0.31728670089413313,
        -1.1739293554499621,
        -0.4767950221677441,
        -0.3662228155211134,
        -1.0778716657269276,
        -1.156912424284112,
        -0.9316199287882525,
        -0.8464270344765892,
        -1.391211053702913,
        -0.6913961071986127,
        -10.820420396855246,
        -10.45866650989679,
        5.075538913626809,
        3.805920867832502,
        4.062055509448066,
        3.5334789015026353,
        3.537520629754136,
        1.0128565055180954,
        0.9271519961434864,
        1.0798724829233985,
        1.0462831607090213,
        0.14083481668454942,
        0.18236115804940778,
        0.19508531356241401,
        0.2030811634102673,
        0.1744320910658027,
        0.1366102763624443,
        0.1627604516075047,
        0.09258321582630603,
        0.1981076650285107,
        0.14485001235371936,
        0.11421976607289495,
        0.07258227941629584,
        1.931525135435611,
        2.0951512192367567,
        -0.18448461003846817,
        -1.7716443131093262,
        0.5232011146366925,
        -0.7626354200329003,
        -1.0682273619149465,
        0.6377211265591486,
        0.5248450386589717,
        -0.2637502148154167,
        1.0965910957331135,
        0.5661541170656839,
        1.2324618765173265,
        0.908374851215432,
        0.16495589991357604,
        0.7189769518614078,
        1.1004884229588972,
        0.5644017602950565,
        0.11918359614339093,
        0.4522501748091455,
        0.28958044200372063,
        1.6875939852559163,
        1.4525941059327896,
        -1.6623527571994299,
        0.3101717856864543,
        1.137185276526691,
        0.12620384378445668,
        0.8191451249678023,
        0.581462262729213,
        0.1987907053543959,
        -0.2794567858596889,
        0.32914777265047296,
        1.497777226313493,
        0.763375571911609,
        0.27276457683068067,
        0.9293144498173056,
        0.7484539366751207,
        1.5319206704122337,
        0.5952064891315313,
        0.7023821132479278,
        0.6200651577511173,
        1.5082230677767257,
        0.19261151019031658,
        0.07065891753542207,
        1.5722580020816106,
        1.4471660848271932,
        -12.467530848321726,
        -8.421930498469962,
        4.5804219574029785,
        3.5173025485155995,
        3.495980305075405,
        2.8051099481621335,
        2.9605367937756695,
        0.5889871891807061,
        0.10388079641690894,
        6.244993644143358,
        6.242598983099941,
        1.1621276255334054,
        0.9498426717891221,
        0.7394766528564184,
        0.6822998414637336,
        0.7401957089839571,
        -0.09000480707151942,
        -0.7871921957079439,
        -0.7340105618400447,
        -0.4777065619382923,
        -0.4940993093476892,
        -0.2983762999668873,
        -0.14392768650751425,
        0.6243900401839912,
        0.8606799270094141,
        0.5242106583461218,
        0.5596720017923552,
        -0.4260970141328052,
        0.14943297655333138,
        -0.20661216694022647,
        0.44953954656608724,
        0.766336640394151,
        0.03492401876790637,
        0.6954749124767546,
        1.0357335188390946,
        0.3390157016323382,
        0.6680980139732027,
        1.5363490872591399,
        0.012723267774195409,
        1.7198063489030886,
        0.3084945729643036,
        1.7822896260436352,
        1.5245708626395686,
        1.7536261300679463,
        1.4780858870119205,
        1.0392179383347802,
        -1.6074706218264954,
        -1.3773585588712698,
        0.4761893381941882,
        -0.2717379660243834,
        -0.6188489102569494,
        -0.7522113447562031,
        -0.7867941328239576,
        -0.11248552305606506,
        0.9720577764973067,
        -0.13361403705383693,
        -1.159585555444319,
        -0.6557228630275787,
        -1.7572038038498585,
        -0.9009308501266868,
        -1.5303382223544932,
        -0.025285584208666882,
        -0.28980162851282265,
        -0.991380573818637,
        -0.9315730619504355,
        -0.7126363822548796,
        -1.9944523805069443,
        -0.8616316622656333,
        -0.6926969469733529,
        -0.47648375938473747,
        0.6621225551558498,
        -1.3279254895706358,
        -1.0548807645308074,
        -0.09627473884522275,
        -0.20679906466712256,
        -0.8228592982808405,
        -0.8573233333069722,
        -0.35862020180369675,
        -0.2685855560809093,
        -0.5010097652701933,
        -1.2366699068533973,
        -1.230535859853955,
        -0.40498812370412446,
        -1.7807199155091462,
        -0.987612281469351,
        -0.6466687195012524,
        -0.5206716499754442,
        -0.8434151095295646,
        -0.7637178379477881,
        -1.7356215250160754,
        -0.7240406119914056,
        -0.4296056635811852,
        0.5538301970417789,
        -0.07936380810985931,
        -0.7299477127609699,
        -0.9093361575017348,
        -0.494207478583261,
        -0.9206831819877492,
        -0.4933900869287617,
        0.28768176922187155,
        -0.8204010936945917,
        -0.6303018420307673,
        -1.1566718430643583,
        -1.524409709829963,
        -1.2277774716642063,
        -0.9150498723256222,
        -0.6644963572577522,
        -0.6194297884208291,
        -1.1335954049916386,
        -1.352232955849414,
        -0.8652059550928313,
        -1.358645577620196,
        -1.9419410649815514,
        -1.5999749883258236,
        -0.48492472859001406,
        -2.41272635804639,
        -3.1964257360248958,
        0.53530685058777,
        0.13937118223393788,
        1.1503744569626309,
        -0.024343544537013446,
        1.3854812929156555,
        0.841204643111823,
        -0.3038233340778176,
        -1.1255684608222103,
        -0.7286002643386775,
        -0.9925132755549232,
        -1.2176069550477489,
        -0.3408077780543995,
        -0.8383118767267875,
        -0.6737533179781952,
        -0.8093406251716445,
        -1.517556196536265,
        -1.0788681492980816,
        -1.702688994699697,
        -1.5500343449464187,
        -1.7394989148232125,
        -1.603544188701014,
        -10.105192448626855,
        -9.790190766926003,
        4.903036951876695,
        3.589174731951899,
        3.706135945905025,
        3.4245388116661526,
        3.209960108591621,
        0.75456010757129,
        -0.16127305864138985,
        0.8652485245043635,
        1.0141264602982492,
        0.23571004787988417,
        0.17439645035154808,
        0.09475984326100263,
        0.061083111564931326,
        0.05108381351939144,
        0.12932477268105308,
        0.08078025493017012,
        0.057604715848970256,
        0.13842657757078738,
        0.09805779752895044,
        0.11800481820444939,
        0.0376499896532587,
        -1.3061489926461076,
        -2.1259943345120127,
        -0.8120965554873084,
        -0.35737603607345264,
        1.7772678988755977,
        1.1944474757165442,
        0.6970462398925918,
        -0.6962588875436817,
        -0.38564698381896223,
        -0.4295886501156636,
        -1.02567996427575,
        -0.2488019024748208,
        -0.320962534687388,
        -1.4528246074075526,
        -0.5654313344362462,
        -0.9128330566113939,
        -0.9733191302163364,
        -0.9534275000127246,
        -0.7098990491139104,
        -0.5032709896914134,
        -0.44774028837350227,
        -1.1102178866429968,
        -1.1425300632289783,
        -13.043256869276265,
        -8.83261224892564,
        5.013313688025483,
        3.719719483379988,
        3.867340167105104,
        3.2913766583031188,
        3.348390224206692,
        0.669150803909137,
        0.7831461749257784,
        6.617182884864479,
        6.693044482924278,
        1.25776889686398,
        0.9577354365388865,
        0.6939413394703119,
        0.6471979912385807,
        0.757024535753213,
        -0.17112346139020648,
        -0.9878319890504932,
        -0.971120278671815,
        -0.6157116204323136,
        -0.7485325129971929,
        -0.4762079311286957,
        -0.23986252903632624,
        -0.2189794675141375,
        -1.0814521106829176,
        -1.0343181759443825,
        -0.6902584981679419,
        -0.5790090135698567,
        0.783847778707969,
        -0.36781459887031026,
        -0.04150865833687352,
        -0.9510946888746702,
        -0.7275401143015819,
        -0.913992164093856,
        -0.7224008958794579,
        -0.3428341056690909,
        -0.4470950151213076,
        -0.8458049857217002,
        -1.7666881581026317,
        -0.5568944132044651,
        -1.5037952441825944,
        -0.9440467930267474,
        -1.004075998993557,
        -0.6513733106869063,
        -0.9088591595851686,
        -1.1391803662386883,
        -0.4099321885158948,
        -1.0163692709666206,
        0.020535352639508033,
        0.5985180872580622,
        -0.5020616339238885,
        0.2757831416827347,
        0.8690300421264774,
        -0.6008637753055553,
        -0.19937359672598076,
        -0.2961401416118646,
        -0.2309375181549868,
        -1.6394084988779047,
        -0.8054477289106893,
        -1.2471889073105464,
        -1.3327854998350341,
        -1.133138438403005,
        -1.467760614228042,
        -1.0055568628971523,
        -0.7707151807938972,
        -1.1779674568280571,
        -1.4128158746061819,
        -0.5996448580094692,
        -0.6243496181316696,
        -10.970951451487458,
        -10.718294868020964,
        4.554894230099313,
        3.442409867211858,
        3.63140600967025,
        3.1500676047579805,
        3.109853227843562,
        1.236010993137141,
        -0.15174464514360916,
        1.0388723940108378,
        1.053225402315234,
        0.2590064077880793,
        0.18289244006265826,
        0.1661212916875131,
        0.24390298219071,
        0.25550185502178385,
        0.1877019964821842,
        0.417541223602246,
        0.33300669205438255,
        0.2162349018780782,
        0.255516970580301,
        0.35476870781812037,
        0.32836417205053714,
        0.09210230685262714,
        1.3478812535372675,
        0.8887632216965152,
        0.19288572738693058,
        0.5483450346968948,
        -0.5846477828949989,
        -0.03368830751980013,
        -0.26240241923927243,
        -0.9354541074634788,
        0.7526491026525258,
        0.011386472328600124,
        0.847027084962732,
        0.8718457378183797,
        1.2429005233836914,
        1.6561071364889082,
        1.1646851997818992,
        0.5330048135008768,
        0.5155778487374181,
        1.3618330570739463,
        0.20162299039886272,
        1.4222326954504587,
        1.7209692299463752,
        1.1706757761733568,
        0.46564874961231695,
        0.008997848915556642,
        0.17099470071299092,
        -0.3666560019697699,
        -0.346076676840196,
        0.1260988099129772,
        -0.6229415023350189,
        0.018819428216448247,
        0.005606920538768387,
        0.9161509486299931,
        0.6125109773782739,
        1.0398949550270333,
        1.2828285227366112,
        1.3798470638472113,
        1.30864256493541,
        0.684865188437189,
        0.645633768660923,
        0.32895424643991816,
        1.5743205730067928,
        0.7704007909311612,
        1.0105507116687782,
        1.046286097326494,
        1.231803868706984,
        -0.4750850343671397,
        0.7779229298773613,
        0.6404622395671845,
        -0.29035356983704125,
        0.10382058494634233,
        -0.10814547423818492,
        0.683125558766556,
        0.4262491615617108,
        0.14345826371235276,
        0.34785348207779465,
        1.3754196136003565,
        1.2444023559238446,
        0.8503774311191065,
        0.13135229674452184,
        0.751495653376711,
        1.4442028705841325,
        0.9199599193598024,
        1.0872850035559047,
        0.5313386513119179,
        1.0072023861090045,
        1.8934821599541627,
        0.6229532880446124,
        1.260331693489161,
        -8.289113767962766,
        0.28461140475744257,
        3.012992633711722,
        1.730111760244909,
        1.6895068533857673,
        1.0475389367863173,
        1.6439356579732964,
        0.777604851743568,
        0.09293639917777949,
        5.729293826701776,
        6.179033830945654,
        1.6174163804354031,
        2.029260653485133,
        1.3762832078438656,
        1.216289226595256,
        1.0238506238714078,
        -0.5381134735268212,
        -0.23561481155111916,
        -0.24652521739086228,
        -0.24307244325595326,
        0.08495321189876559,
        -0.40151422585381846,
        0.2447884079004414,
        -0.41718195195348023,
        -1.1538401516780392,
        -1.1276330767710767,
        0.4373048432326487,
        -0.9556046212998363,
        0.2502206798710608,
        0.22807363192803437,
        0.34372683157373174,
        -0.9806389396653692,
        -0.8342825383839326,
        -1.805539719483336,
        -0.38157780439034006,
        -1.3046110080657642,
        -0.9095512158036195,
        -0.1359492346111134,
        -1.1414942798540777,
        -1.5021659253920832,
        -1.6749623379487057,
        -0.30361838628701804,
        -1.946363222172245,
        -0.7734189132760066,
        -0.4590704047809414,
        -1.7526592676997121,
        0.6450271306893456,
        1.0873661614416124,
        0.3300149934490305,
        0.2400169084827596,
        0.7434224137996187,
        0.7413169535528209,
        -0.09423241684754918,
        -0.7005514491940212,
        0.9293571289915431,
        -0.07495293728928142,
        0.2411386852631571,
        0.022989080205425422,
        1.1092605550528012,
        1.6239370133814743,
        1.2381256203983377,
        1.0982014969352965,
        1.5720625974109892,
        1.470465790730414,
        1.4251528385369174,
        1.3368435131490701,
        1.2512726872599125,
        1.346895552999793,
        0.8888239509122057,
        -9.25174475693395,
        -9.13965741229225,
        4.240390971162906,
        3.1179634828663194,
        3.5057409159176363,
        2.9000855463252213,
        2.888637946591158,
        0.7558777432660359,
        0.7375689739860009,
        0.8954119461536723,
        0.9193668953611979,
        0.21082131477266638,
        0.07585999892081922,
        0.13403401194879333,
        0.09757898811053599,
        0.14022535556615426,
        0.18750633961884636,
        0.23244571660940713,
        0.1909027435323516,
        0.16162951030281913,
        0.30640284730940814,
        0.13204934682006456,
        0.12245540446955784,
        -13.089456568746632,
        -8.919085678350479,
        4.948165569379179,
        3.6730226509311277,
        3.721091366251668,
        3.120024886733213,
        3.1897666464943275,
        0.590413304667581,
        0.469626715074669,
        6.524298372423867,
        6.693183700691613,
        1.334225725799173,
        0.9999423514719308,
        0.5628514061844254,
        0.6281988125363697,
        0.7809827068901478,
        -0.015580807933687725,
        -0.9187521538241417,
        -0.9820560576688068,
        -0.5172508650536934,
        -0.7822096978369234,
        -0.48990227248013934,
        -0.13099522670977576,
        2.6988227461684087,
        2.963305026847555,
        -2.0339485380047595,
        -1.5935687885885055,
        -2.0797993107829282,
        -0.3997507534941844,
        -0.47838639218527973,
        0.30289912705452643,
        0.9374732706476983,
        -1.336451046285966,
        -1.5722979216107376,
        -0.9287297470612549,
        -0.9256485150034578,
        -0.6309656964543885,
        -0.872100014481149,
        -0.338008347460058,
        -0.7309816686484961,
        -1.2791675683941561,
        -1.2058289802710216,
        -0.8718260984422314,
        -1.7148947555176821,
        -1.447034307198494,
        -1.5557233934957273,
        -0.6013836557530046,
        -0.4286770559153044,
        -1.17951117018916,
        -0.09817254166250405,
        0.3837073291122965,
        -0.2781670806122145,
        0.27725157416754975,
        -0.14510371793906637,
        -0.9252701766314413,
        -0.17083922186778835,
        -1.0829352319842005,
        -1.7010580461694582,
        -0.8019303624131359,
        -1.4216658713684502,
        -1.6427790086206426,
        -0.4870834418584274,
        -0.41174907910719183,
        -0.49032144659291005,
        -1.7416018540527713,
        -0.7648239318851454,
        -1.7626675264169063,
        -0.2500544482610458,
        -1.5784605245488916,
        1.203968443900725,
        0.9689497048336471,
        0.7500037925458358,
        0.7457365521604445,
        0.07478651633140476,
        0.7039136978553051,
        -0.9491760597355416,
        0.22964883500883357,
        -0.04138181698058758,
        0.8255609115466236,
        1.3259098117340695,
        1.3868441326749663,
        0.17067240566105227,
        0.18478069292109892,
        0.5428838420886818,
        0.12665467381439996,
        1.2248379536897445,
        0.48094628583433113,
        0.7388745491906055,
        1.7121641641983787,
        1.2196431020177823,
        0.775006570923718,
        1.6165729275358431,
        -1.0650114819028489,
        0.45116149003709843,
        -0.5788837135760341,
        0.1940791800734371,
        -0.5683213575354094,
        -0.8724209318003872,
        -0.8753373879028922,
        -0.4607790623587973,
        0.07354894755234018,
        -0.3562235639051946,
        -1.900334175333457,
        -0.24179823521834515,
        -0.3195130639197502,
        -0.5813591631077704,
        -0.778285653992906,
        -1.2199389287226938,
        -1.296171375233612,
        -1.066278505439635,
        -0.5113106610096297,
        -1.6267200417541479,
        -0.6387192083160734,
        -1.7482664007627242,
        -0.7522052053031139,
        9.438684328852379,
        9.194890498551336,
        -4.31951297500812,
        -2.8340076512618926,
        -2.9215174019735515,
        -2.5794259094297036,
        -2.418799843966093,
        -1.1302088483511523,
        0.7162169923613605,
        -0.78806836474592,
        -0.8635659869984905,
        -0.16156419519371748,
        -0.07745701074845118,
        -0.20674515975630844,
        -0.23491073266797255,
        -0.11510937768968416,
        -0.1488949877467628,
        -0.1569260809159066,
        -0.14396591630218872,
        -0.15925580273799908,
        -0.09132926300167432,
        -0.21253502410184888,
        -0.22672418653317444,
        -0.6770443942432399,
        -0.5628210546042005,
        0.4999608106448313,
        -0.8813969763752879,
        0.06236264933393797,
        0.4888484689310614,
        -0.029979765072374015,
        -0.3749825923657964,
        0.3162033090001099,
        -1.5552886934472634,
        -0.42330329449718235,
        -0.5432219229261491,
        -1.1774766809399684,
        -1.5292838541436888,
        0.0025121566124380766,
        -1.3845071805885536,
        -0.8908114983819013,
        -1.3235934309928683,
        -0.9907062184828385,
        -1.521596434538976,
        -1.1892031702206252,
        -0.5542573671825565,
        -1.7867341283990104,
        -7.453724617526385,
        -6.885675064170552,
        4.1303297230537765,
        2.7871063107951572,
        2.8187185558743937,
        2.3906152662350877,
        2.4050249986740884,
        0.4078626316440681,
        0.706921894832796,
        1.15095762426046,
        1.2245065170592393,
        0.12728979887872383,
        0.048515449724288326,
        0.08067336709404875,
        -0.08856521973412061,
        0.08257393115656805,
        0.006240331740861647,
        -0.0850863066271373,
        0.04770675049537141,
        0.11610552384545121,
        -0.06965466534156875,
        0.1876721905638243,
        0.07692377031844048,
        -0.7123259015793795,
        -1.2856070746947552,
        -0.6124994336663284,
        0.02888593502670956,
        -0.44416796434766,
        -0.9796199944808044,
        -0.1442775384876712,
        0.018020245481761853,
        0.5161831062067771,
        -0.7036644718148816,
        -1.0002524794265377,
        -0.26226295965526697,
        -0.6112235117178905,
        -1.7724263528638224,
        -1.7032023466666122,
        -1.3378311266125498,
        -0.4256098494882839,
        -1.9577901224332916,
        -0.5111947836880788,
        -1.6349990222650215,
        -1.376068578145775,
        -1.980359568694651,
        -0.9447950539570592,
        -0.2635542391739328,
        -1.3032683013620447,
        -0.3811500982288757,
        -0.7299613482679168,
        -0.10627950200468794,
        -0.3855371571833036,
        1.0040113686283216,
        -0.7407000555312053,
        -0.06749533058923007,
        -1.2970307360685411,
        -0.5317773256556869,
        -1.423579231044685,
        -1.0406225336051163,
        -1.3664564104223753,
        -0.018334094281831904,
        -1.611419103355087,
        -0.058164545428656525,
        -1.0061129092663914,
        -0.4323688507548979,
        -1.630594986110413,
        -1.4985785049278635,
        -1.3599740310822528,
        -1.75608397981961
      ]
    },
    {
      "type": "SimpleMatrix",
      "cols": 69,
      "rows": 3,
      "values": [
        0.7620865718396393,
        -0.45588020052107714,
        -0.9443260405366798,
        -1.0226236858105748,
        1.5059087219571468,
        0.546623521415903,
        0.08347309857349465,
        0.6775349031578776,
        0.48140892374975264,
        0.755977590549709,
        0.07288967208950171,
        0.9427884029626293,
        -0.28127970294488047,
        -1.1895267443823598,
        -0.21795707952926302,
        1.1466498858518548,
        -0.8120588165948305,
        0.5578310510489666,
        0.367663994256604,
        -0.8143155388256298,
        0.252371199813117,
        0.44690026962981794,
        1.9591888318125246,
        -0.6993236010616544,
        -0.9057033069395459,
        0.4724746992998577,
        0.6835445719867967,
        -0.5276757163367533,
        -0.04725402248355502,
        0.18647663341881798,
        -0.06481096202825325,
        0.25490166087343435,
        0.5608337675444751,
        1.2155237989918908,
        -0.09781232581343953,
        0.7920171433884247,
        0.5003119021276637,
        -1.069751554071754,
        -0.027826746249122247,
        -1.0334352076770557,
        -0.6447637393613073,
        -0.2368582267623837,
        0.009149068638235695,
        0.4994254298121866,
        1.0730528776523627,
        0.37507269775419444,
        -0.7113947215739338,
        0.004915231160009931,
        -0.6378666763679574,
        0.5248346368839343,
        0.6822684565530938,
        -0.8393711342865677,
        -0.5311281126092435,
        -0.22539621936531412,
        -0.5257952086942805,
        -2.4664439466523445,
        0.4367651182794459,
        -0.8135167177010341,
        -0.3362161874793042,
        -0.6836210087883537,
        0.1360327610860832,
        0.8095603971552071,
        0.013680625841365463,
        0.1866289868325582,
        0.22916177086355574,
        0.12440287789079436,
        -0.25133212315838493,
        0.7388430549982284,
        0.023643263194501083,
        0.41700635100365824,
        -0.7113203027498305,
        -0.6896203197965156,
        0.7252410937443161,
        -1.6708932676150052,
        -1.0499558227671983,
        -0.8689889474365651,
        0.642119508290469,
        0.34614083100176946,
        -1.0163723682813335,
        -0.7001533105046147,
        0.42120118497609715,
        0.22302162738772272,
        -0.765149060577039,
        -0.05041997170025275,
        1.9387858954522224,
        -0.7323902423905349,
        -0.3434473354367869,
        -0.9857820813468052,
        0.0757565265563193,
        -0.963736469128476,
        0.009733890428816238,
        -0.34383708777406796,
        0.43364630219394174,
        0.48754255102463295,
        -0.3205937351810763,
        -0.12057427496716325,
        0.29816048136687073,
        -2.3325449940066707,
        0.4225624145331706,
        0.5210417407368066,
        -0.6382007552843686,
        -0.6811819871332636,
        1.0312647284024297,
        0.9016441610117422,
        0.44508109949705826,
        -0.5277250777427337,
        0.16606622255860842,
        -1.05701953041133,
        -0.6262861896564494,
        0.10992289439602178,
        -0.4370933667276819,
        0.10036480227360918,
        0.5130866667967503,
        -0.643327589468299,
        -0.6472229348103354,
        0.21244890978967448,
        -0.9579144178637874,
        0.4804643693096389,
        0.23071725320875963,
        0.9010124153039768,
        -0.3169148069981765,
        0.6878962387017158,
        0.022577518384125698,
        0.5167729595364599,
        2.590224657239699,
        -0.7943138767574004,
        -0.7620170225435805,
        -0.4649221231544666,
        0.6618125729830096,
        0.016794295147803933,
        -0.9413640710061772,
        -0.561290071197131,
        0.6086318948555239,
        -1.1545351612533767,
        -0.49126109769892085,
        0.09133107077820225,
        -0.5473169300840884,
        -0.05370552999032608,
        -0.7725796598064439,
        -0.31919593926090944,
        0.22760693667741927,
        0.9301194551680564,
        -0.042112946579365866,
        -0.7041327863329211,
        0.06324204470065266,
        -0.18963717452645246,
        -0.14223062220165444,
        -0.5314607805948668,
        0.3747487678909975,
        -0.7749317438681043,
        -0.01585967126052989,
        -8.419261250611707E-4,
        0.3613400751848543,
        -0.025919014479967886,
        -0.18914225477088586,
        -0.4052419850798783,
        0.24993010197069573,
        -0.6462170237729502,
        0.477833998827133,
        0.5722719058751268,
        -0.1525491162679796,
        -0.7085859671728649,
        -0.7220946002667379,
        -0.4596546829186824,
        -0.43790367886358167,
        -0.2025101619261338,
        2.995791737885373,
        0.4915940198188654,
        0.26355535567142246,
        0.6641887161424577,
        0.13907148138111272,
        -0.0719729725867154,
        0.6634681481387387,
        0.257997459088785,
        -0.022140600303438986,
        1.1620222969203695,
        -0.6729840098286991,
        0.12809096476079374,
        0.1560106765819322,
        -0.35124955696016014,
        0.8027366370555977,
        -0.01047106257034943,
        0.5726078299786161,
        1.1018151565174799,
        0.6898472104359192,
        0.43875233457798435,
        0.30379367477539,
        0.7962555709978665,
        0.9443860143355162,
        1.144603608033658,
        -0.562487931080973,
        0.014530073952959287,
        0.07551579424820733,
        0.07502220324178642,
        0.32231227609379304,
        -0.7381189372397821,
        0.43056119191788733,
        0.37405229011510066,
        0.04757600696029123,
        0.17752989661321078,
        -0.6828798928297054,
        0.06247370723679321,
        -0.48660694389914777,
        0.1725036334029291,
        0.14168904996747242,
        0.9315572354298405,
        0.3084643670167576
      ]
    }
  ],
  "biases": [
    {
      "type": "SimpleMatrix",
      "cols": 1,
      "rows": 69,
      "values": [
        -0.14811245006306598,
        1.800071618438208,
        -2.466619201329539,
        0.591401796970043,
        -0.778682554770207,
        0.07846704095297374,
        -1.4078985816786413,
        1.703912741824337,
        0.6766554043545421,
        -0.46781819423339727,
        -2.020535229390669,
        -0.42201083530065814,
        1.6104226280951326,
        2.382754409418973,
        0.14396649310555917,
        2.653152575299262,
        2.2454500756455116,
        -0.21562433558974847,
        -1.549633983873566,
        2.4911219590282143,
        -1.6598967636610276,
        -1.9958211934688923,
        0.5534843440328366,
        1.1475679499635958,
        1.6886317003001745,
        -0.6131530181449338,
        0.7945900366727037,
        1.276422940160742,
        -4.588619398067387,
        -2.334585117515208,
        -1.07685962321369,
        -1.7367295145850559,
        -2.4966190916140056,
        2.614801450629917,
        -0.4641168648662613,
        -1.8728176941636487,
        -2.0421650600035104,
        1.1088023451084386,
        2.0315185295805045,
        1.8933894266883249,
        -1.3325429615769782,
        1.3535030003290003,
        -2.081497086847025,
        -2.055892698160006,
        -2.049484327807959,
        -1.3207431171184796,
        1.3923957658039623,
        -2.149699286525158,
        -1.3505987230603325,
        -3.101929377956132,
        -2.9198341711686906,
        0.4246570106595809,
        2.502806870066874,
        1.041072258737457,
        1.6685778458961005,
        0.5750781153637446,
        -1.368909372940119,
        1.9807557246078735,
        0.5585519358966977,
        -1.5085462618199865,
        -1.8272485045374702,
        -2.1745587114972422,
        2.0098403346300295,
        -1.1326765970506107,
        -0.8577937705438827,
        -1.0291562964009924,
        0.832501987432386,
        -1.2938287140585218,
        -0.4722847031827044
      ]
    },
    {
      "type": "SimpleMatrix",
      "cols": 1,
      "rows": 3,
      "values": [
        0.8383787725996437,
        -1.2134204529488362,
        0.04861705260596404
      ]
    }
  ]
}