{
  "config": {
    "inputNodes": 21,
    "outputNodes": 3,
    "hiddenLayers": [
      63
    ],
    "learningRate": 0.1,
    "activationFunction": "SIGMOID",
    "seed": -2702255708308435234
  },
  "weights": [
    {
      "type": "SimpleMatrix",
      "cols": 21,
      "rows": 63,
      "values": [
        0.751003357075733,
        0.20224111523563526,
        0.23677168663416437,
        0.28851320293800015,
        0.16586810787543177,
        -0.05220289855813157,
        -1.0527963384786225,
        0.2010208023340358,
        -0.8284247218863593,
        0.8998332484191094,
        1.1678511144094492,
        0.19727004184942212,
        0.49314744659630244,
        0.5264190137626653,
        1.6145170636456514,
        1.4705843672267682,
        1.1628672421095363,
        1.1414119801977618,
        0.5420646938458377,
        0.49541728321541706,
        1.5253347858451876,
        -11.258332290059679,
        -1.3836201841090112,
        4.429804387911101,
        3.6477174802626697,
        2.9505546644715923,
        2.067545656764318,
        2.257415491535206,
        0.1274785501533331,
        -0.18523310290660297,
        6.018163647564237,
        5.974259859241697,
        -1.1024975783228408,
        -1.3352049398256611,
        -1.0456957108175817,
        -1.3959177732946992,
        0.952840865994444,
        -0.34764547445602434,
        -0.11899562757458032,
        0.0696638711783133,
        -0.9101338452828233,
        -0.0748016525422963,
        -1.317435644866322,
        -1.505417371073476,
        0.07649855682757764,
        0.22065003013710488,
        -0.40790794518354984,
        -0.22211361386200065,
        0.4912254866685606,
        0.39058379638885904,
        -0.9694928999330068,
        -1.5934790293267624,
        -1.2921974696252863,
        -0.3439418668093499,
        -1.8389154469776965,
        -0.17934011775033037,
        -0.5080601817321954,
        -1.1698964557883613,
        -0.857893871192636,
        -0.6517188990787195,
        -0.3315008505916885,
        -1.5312658459809803,
        -1.9396129161650724,
        -1.0846701635012006,
        -0.4888912454290969,
        -0.16771568938438852,
        -0.7894944624597967,
        0.2964204629944432,
        -0.3650029395184821,
        0.0024614374604643285,
        0.9893378595957757,
        -0.34557664260885734,
        -1.1582700864445614,
        -0.9916114870417241,
        -0.54307779176187,
        -1.1916658568208354,
        -0.6120014749858245,
        -0.7950054658283894,
        -0.7852647346581579,
        -0.8844614987078084,
        -0.8767847290868104,
        -1.0536074615254343,
        -1.8298064767932236,
        -1.295824314174747,
        -2.416653278444751,
        -1.1145976157229842,
        0.3676083234717659,
        -0.22979455296772272,
        0.8746842444781081,
        0.8965160033724786,
        -0.4124238144225183,
        -0.30069372575444875,
        -0.8422735471745324,
        -0.6491472915919684,
        -0.0568200496226305,
        -0.15266383798990613,
        -0.8100543141535471,
        -0.15069157640234462,
        -0.9700489957522621,
        -0.6901379079187211,
        -0.5580868834576038,
        -1.3404279459848896,
        -1.7853460144990398,
        -1.243398958180946,
        -1.3235164369806747,
        -0.4856516179052721,
        -0.6322392277103025,
        -0.7425762982148072,
        0.02452258290694735,
        0.5946046495794882,
        0.5095112276939018,
        0.046717352542129005,
        0.7448507371173978,
        -0.7450613062156627,
        -0.519020440938375,
        -0.9819593862559685,
        -1.4045548275827004,
        -1.0444055807100676,
        -0.7367617696299318,
        -0.38770423993304937,
        -1.252320235973762,
        -1.4772145230839078,
        -0.974245553406131,
        -1.5215322397542823,
        -1.3192668928742506,
        -0.9977193444115653,
        -0.09445317178863902,
        -0.6186607449043897,
        -1.3740605709586833,
        0.5391576847433585,
        0.7835615584987881,
        -0.5463831960322768,
        0.5941372367166158,
        0.6976528881696002,
        0.05714854783034229,
        -0.9099256368146501,
        -1.2431585224274873,
        -0.944698651666967,
        -1.3603636503406369,
        -0.2799524605065868,
        -0.932488274662048,
        -1.6275905713395111,
        -2.073746006037106,
        -0.8822667598788593,
        -0.7960656486530148,
        -0.4041842356404036,
        -0.8384746653382026,
        -10.036214849821294,
        1.8625734942334564,
        2.667227441821631,
        1.6639128321704781,
        1.0410475655864013,
        1.1253561296525059,
        0.4227853149059463,
        0.7836518768614532,
        -0.4513912853527069,
        2.185186347654406,
        2.1471620322433993,
        0.2712802502990222,
        -0.04985992999256576,
        0.40344047433035424,
        0.052126643970177106,
        0.08144656261494451,
        0.36113017696715194,
        0.12407885359096696,
        -0.1321647142749437,
        0.510843727168582,
        0.32065283911436476,
        11.527265910110888,
        1.6412660463469106,
        -4.45449313132529,
        -3.593594418243458,
        -2.6676559567636056,
        -2.2215213783537773,
        -2.1910828896247447,
        -0.32293615567119094,
        0.3389708309065474,
        -6.621320780485487,
        -6.418354656502759,
        1.2546830751757279,
        1.5045567688332118,
        1.1749403202527722,
        1.320484128194137,
        -0.8155790421433808,
        0.40040518011926773,
        0.08480160114739255,
        0.05442610505957214,
        0.809249201793885,
        0.11725018637263432,
        -10.152104045088004,
        2.3240344300785782,
        3.014826418444252,
        1.6362641175833819,
        1.28319767094006,
        1.0636953015807338,
        0.9233529353154075,
        -0.48838567995508647,
        -0.2266336839889863,
        1.2639129595494858,
        1.2014317999446675,
        0.060005534476212194,
        0.11679058132638108,
        0.2789803725651262,
        0.05369073386496929,
        0.6671665842918209,
        0.43909693326194515,
        0.26142958684955514,
        0.6051070637783793,
        0.4608820846083343,
        0.1500041347072918,
        0.02058366552042107,
        0.8534194613534569,
        0.2503064961684821,
        0.763130970308418,
        0.3494559883768636,
        0.46964816502999734,
        -0.07299412592392522,
        0.6332123215927986,
        -0.374353371576086,
        1.6154253363465476,
        1.3767772590458005,
        1.3837726583350067,
        0.1635559335211892,
        0.3253575400857859,
        1.5663205675581753,
        0.6580462061174054,
        1.0766317358326252,
        0.6975150106483157,
        1.5697499107742547,
        0.4434835045034894,
        0.9131239352062364,
        0.47513872483102826,
        1.411258253439194,
        -0.3568037967590983,
        -0.4532227692922602,
        0.5776582139202683,
        0.6733477365865547,
        -0.7793615232946851,
        0.22851009779189257,
        -0.3997739337758705,
        0.7900236177862019,
        1.39350479859201,
        1.2785127600885875,
        1.4999192561463137,
        1.1914610494209463,
        0.8321159250276559,
        0.6245719497877238,
        1.9335987428675367,
        1.0163991680285964,
        0.555897264778909,
        0.23094825375822228,
        0.3227531856498115,
        -12.287449699411578,
        -1.9820591311478963,
        4.184027347571103,
        3.324016773499089,
        2.6014642981034313,
        1.98469792784716,
        2.0160940685783704,
        0.41365376833205125,
        0.6774079097906105,
        6.8461518898962455,
        6.654356092558438,
        -1.2246839291109564,
        -1.4687773393351224,
        -1.1565469817141718,
        -1.3123005696984997,
        0.8227500119462802,
        -0.4439425743300762,
        -0.05530840458705575,
        -0.013663605298477283,
        -0.8296965385224163,
        -0.06751503023545621,
        0.9853865360690933,
        0.64756725538425,
        0.3308860170749074,
        0.43846870416289424,
        -0.7301893233280011,
        0.38317677768608344,
        0.9358410341423251,
        0.4201921260561521,
        0.6865081910330304,
        1.129766654879121,
        0.6493348708901794,
        0.6606828683550524,
        1.7246612182166616,
        1.2850486565235815,
        1.3293933996655982,
        1.8220104624174858,
        0.43742215223334313,
        1.4742083807078914,
        1.8440599655831238,
        1.816866159260939,
        0.3158497122946502,
        -0.008285866034564828,
        0.2905934265465259,
        0.930720948335425,
        0.2852219452348848,
        0.550433564779506,
        -0.5206179258015632,
        0.08017038516555995,
        -0.8242202738280175,
        0.7979222257793738,
        0.3534812890705039,
        1.2851300748568526,
        1.4787912043285032,
        0.7713372942980942,
        0.721875942224625,
        1.4064665759117445,
        1.0526610246400603,
        0.6472034087063968,
        1.4725409201839954,
        0.6081095961251308,
        0.7860228250387449,
        1.1948648912154338,
        -0.050315632517393315,
        -0.12091222186281744,
        -0.15182369458093065,
        -0.670102679510293,
        -0.4431711491868904,
        -0.30891434536354745,
        0.1453380890708933,
        -0.9082956105846904,
        0.758140852452001,
        -1.380139302941306,
        -0.5804470360036791,
        -1.3545404287262213,
        0.07338504958478244,
        -1.2912459714891602,
        -0.9722336594284446,
        0.06262210899138869,
        -1.334617269129504,
        -0.9112709637580602,
        -1.4120889649131765,
        -1.1201753141732604,
        -1.0927565567157518,
        -10.414193337757432,
        2.1932061384489536,
        2.9235664574378886,
        2.0715585684351314,
        1.8946098496329302,
        0.8126372807386267,
        0.7681644938739529,
        0.038951820705873115,
        0.9748901664771537,
        1.6041655715823724,
        1.6709206867216162,
        0.30030097866975825,
        0.1433246149230215,
        0.4608037510799139,
        0.39734205387412586,
        0.5788140635030361,
        0.21006334285242867,
        0.3335074852430404,
        0.2621340348392374,
        0.3399411522626897,
        0.37104815371685995,
        -10.77069632954349,
        1.016522120418594,
        3.022335764495688,
        1.967745408398597,
        1.9455916464225753,
        1.3720543558701859,
        0.9416523297229694,
        1.1100298140185891,
        -0.4773187856304618,
        2.019085903638268,
        2.183734023733671,
        -0.33302067630716725,
        -0.20326222322484053,
        -0.25654453640219016,
        -0.07777960102216916,
        0.47121092067268994,
        0.19999592697110433,
        0.44780229484496625,
        0.08860853609517703,
        0.3143051517131021,
        0.11188418252928874,
        0.6642441805011086,
        0.31610209346749224,
        1.2337558185647362,
        0.8100980649043694,
        0.12727938343846473,
        0.5668932122146048,
        -0.8298520976202726,
        -0.7642285921025205,
        -0.5014505136155513,
        0.8322290933905476,
        0.6876132601800318,
        0.5615717197421153,
        0.5641213468294205,
        1.5517216891744636,
        1.0440415597075416,
        2.139015631701208,
        0.6697284865296568,
        1.038734729888563,
        0.826530463673947,
        1.4644175593634112,
        1.5989413568524435,
        -0.6924828775951027,
        -0.056980787523203444,
        -0.5235472957655043,
        0.258197032476539,
        0.2195203110439226,
        -0.947397305574362,
        -0.20359857622094418,
        -0.04024629513292,
        0.4233584118196351,
        -0.9139577104164432,
        -0.6237392217030208,
        -0.31894880862955455,
        -0.1273670089036105,
        -1.0937898042851038,
        -1.6934965618681184,
        -1.3455380696207278,
        -1.779507535021633,
        -0.3915154428399691,
        -1.7886825445788677,
        -1.6174639471172625,
        -0.9448602794020386,
        -9.321013957815477,
        2.8005378273087165,
        2.8221113720632545,
        1.7311358899768912,
        1.5867441541052578,
        1.280981612076797,
        1.2664224478484951,
        0.614381926760588,
        0.10033278078932178,
        1.3976393166076633,
        1.2459534867072417,
        0.011395416034432596,
        0.5084843773504002,
        0.4415083117888688,
        0.27578541704885357,
        0.07089789451905568,
        0.0305880516580169,
        0.18350796053720375,
        0.533161391047815,
        0.5252306575360507,
        0.5552509500344359,
        0.7896542761274894,
        0.8367653531557337,
        0.8705132637294273,
        0.9391971804190441,
        0.6227577232397432,
        -0.764628526134071,
        0.5080183408099276,
        0.2259377180065181,
        0.3980693283648877,
        0.6693861120628308,
        1.4143454817324892,
        0.24593445521117546,
        1.879798910475005,
        1.4515605937769416,
        1.6381170319830205,
        0.4488523065155169,
        1.6094486529461385,
        1.5049232775000794,
        1.211897838003455,
        1.391880436345748,
        0.2709201165159396,
        -9.381235152491302,
        -5.480307687217373,
        -2.4067553621066984,
        -0.6196227187882152,
        4.190422713536826,
        3.161916022166751,
        4.399313890078123,
        0.5551901055669424,
        -0.12961869635810386,
        1.9426311289604974,
        1.9475414469636032,
        0.36299629693406804,
        0.2402199135107091,
        0.46537284855690947,
        -0.017239198186299286,
        -0.9921603077926688,
        -0.3467661450387555,
        -0.3029199367346546,
        -0.4283592686996525,
        0.1925756682591339,
        -0.11329000820726881,
        18.168159180958508,
        3.681263084174318,
        -5.843153314189091,
        -4.388873658299924,
        -3.0292148114661863,
        -2.4884448152105487,
        -2.496336008045847,
        -1.339090370447819,
        0.29027593251297173,
        -9.986873398652238,
        -9.800425983083288,
        1.8825806120503594,
        1.7460541757872219,
        1.4189095773656828,
        1.5121167018691533,
        -1.321771115271114,
        0.40030279980566025,
        -0.09162656224899388,
        -0.055762992896381106,
        1.1439066773444069,
        0.19841271990324616,
        14.312593950662972,
        2.6491549343062193,
        -4.499856048843603,
        -3.937894171488691,
        -2.8093772407360835,
        -2.47993528533765,
        -2.192063712419133,
        -1.3950359340494543,
        0.40529585567819276,
        -8.135371782971275,
        -7.878523071386914,
        1.5056463026195959,
        1.4964787788627254,
        1.157362763246089,
        1.1247454740519287,
        -1.0544790909523836,
        0.3288859019609254,
        0.1325391884703275,
        0.03666173504424716,
        0.8487219003324892,
        0.20947842711459708,
        -1.8460217046542382,
        -1.5171169421054105,
        0.43156996215314575,
        0.0932040975923922,
        0.8985901348614739,
        -0.4384470990024213,
        0.2590393456425155,
        0.8120028954842626,
        0.37195859434141004,
        -0.2281374470651244,
        -1.2791496893919188,
        -0.7813535298653589,
        -1.2637677548764839,
        -0.8431216406259308,
        -0.5312671271307614,
        -0.8685428460533704,
        -0.8430046324798679,
        -2.069638912982953,
        -1.6381376779380012,
        -0.7085518843048562,
        -1.6867460733322759,
        -1.386329746341012,
        -1.2665262619932203,
        0.8323301378069377,
        -0.5858163808931299,
        -0.8175383253178516,
        0.3057246381612556,
        -0.08855457314451316,
        0.967755102917831,
        0.002206442477721651,
        -0.6725361897407891,
        -0.5570954952425713,
        -0.22490912991553075,
        -0.5790996510986351,
        -1.4881829963839242,
        -1.585662389256618,
        -1.4518299908276782,
        -0.5976394883179037,
        -1.6019112348619096,
        -1.1613796045019025,
        -0.9947173309333843,
        -0.44188035095236683,
        -2.645043411816332,
        -1.7130426730867134,
        0.9283256030814709,
        1.0536293305696405,
        0.2609654191344165,
        -0.38073650681575044,
        0.46033556147795573,
        -0.23092153014208133,
        -0.030621121919192782,
        -0.5258339554349897,
        -1.2956229914959205,
        -0.7637246019827937,
        -1.2679505628194427,
        -1.0757200185704583,
        -1.5800167227784396,
        -0.6498778809740678,
        -0.5389683234635176,
        -0.9777739235039195,
        -0.7150420724911781,
        -1.5663991547846696,
        -0.7715707091428946,
        1.8206751956279799,
        0.9824704577058297,
        0.5776258398064371,
        -0.5284775741676554,
        0.8277788720020852,
        0.7197854747875108,
        -0.09970964310509396,
        0.9214471181984323,
        0.5657588529991558,
        0.5617961820710597,
        0.7984737951696367,
        0.4067090299282015,
        0.22782346825925248,
        1.2183276520605293,
        0.3965727336526961,
        0.4284761657034716,
        0.2995509309621167,
        1.494615163839774,
        1.806181788402415,
        0.6679188764340969,
        1.2965847445982157,
        0.22514380881303997,
        -0.6406470783615172,
        -0.06515094570616842,
        -0.4378877877672815,
        0.5114176364789552,
        0.5384011739397616,
        -0.20367218796522857,
        0.24143243853389756,
        -0.18240351663475407,
        -1.3721543206504139,
        -1.0632069660884036,
        -1.1739655742445583,
        -1.0232336409550187,
        -0.16373179844992236,
        -1.0045853390683064,
        -1.4553121232021242,
        -1.3330620078845212,
        -1.329683974984716,
        0.24644948903003433,
        0.14241203322574142,
        -0.6342474577992405,
        1.253069098920057,
        0.8055425080175601,
        0.8278315190133375,
        -0.3166636852559673,
        0.6954746391082696,
        -0.6397889326235209,
        -0.7377917982601945,
        -0.0445692240163238,
        0.3952258681198145,
        0.40870705143631253,
        0.7358417885435997,
        1.54614856148003,
        1.0203911100238932,
        1.2099754655639439,
        0.8928886148428576,
        1.7360367900368288,
        1.3182546917485762,
        0.8429012975282697,
        0.6165636916428977,
        1.7262583200818937,
        1.027487104766073,
        0.8572940041585886,
        -0.021517118857642445,
        -0.15606805947462962,
        -0.16460537209257955,
        0.6505377530386118,
        -0.16451033629115425,
        0.24832044460933128,
        0.010883630708721963,
        -0.8003174226894789,
        -1.0693491111024447,
        -0.9680010296630049,
        -1.654962037263931,
        -1.136828804924875,
        -0.684939998131202,
        -0.3622483072921351,
        -0.4375661803010642,
        -1.096887750082244,
        -0.5926357740705207,
        -1.1310118684935881,
        -1.0766466030639077,
        -1.0695324026049156,
        9.825003922414695,
        1.2792053067177969,
        -3.872315947057518,
        -2.874579052844949,
        -1.8016627809519097,
        -2.1326252366911675,
        -1.657801109183377,
        -0.6156562405612761,
        -0.36183595097308785,
        -5.101735026652289,
        -5.252724788962653,
        0.8772445804737589,
        0.9406522021183695,
        0.9166066049813012,
        0.7491630011617924,
        -0.5344009237056633,
        0.4420680797505513,
        0.14620492817461236,
        0.14488071555590884,
        0.6360319353282321,
        0.20589007322144118,
        17.36780319892582,
        3.6263385199135607,
        -5.3421219853726605,
        -4.207731088006567,
        -3.1123619015613757,
        -2.574940610613359,
        -2.52595733887292,
        -0.7835373226616388,
        0.6404257069442361,
        -9.47830589399787,
        -9.35650420276299,
        1.6833026523954269,
        1.5385504773563405,
        1.2826656157897431,
        1.2708830269279334,
        -1.1908970557842948,
        0.40241625203490283,
        -0.0449866256509154,
        -0.09648543363804175,
        1.0787889977054599,
        0.23897351728834468,
        -14.370799690469871,
        -2.757227268445235,
        4.31911022768889,
        3.5457066384795914,
        2.7006515220745344,
        2.5984172727527763,
        1.9729028841580285,
        1.0333286986637507,
        0.21849580725293366,
        7.998193749986674,
        7.744538682629738,
        -1.5650575146006467,
        -1.5496565451331914,
        -1.2199452174406027,
        -1.19643936251894,
        0.9895649719795647,
        -0.3482120946810643,
        -0.21060273869114257,
        -0.09107366122333711,
        -0.8752279795076758,
        -0.2701323823977684,
        -10.40788594395775,
        2.1509742576730044,
        2.688030344619042,
        1.5232508774027484,
        1.4700830586666274,
        0.9460926638581144,
        1.0709237800155327,
        0.9387159618566192,
        -0.11134175466952674,
        1.2485025852080267,
        1.279497715420806,
        0.19480489795760966,
        0.2530584221844589,
        0.2603669349395215,
        0.25095222761388425,
        0.663820035156881,
        0.029588690171158685,
        0.36840770808988066,
        0.4534948651658081,
        0.2580982240507378,
        0.5853607934409781,
        13.295516060749208,
        2.378513331875677,
        -4.487950690292137,
        -3.5493527620877474,
        -2.7712422969370274,
        -2.077291510116934,
        -2.2116177728055053,
        -0.016971566530263944,
        -0.6316284468946927,
        -7.707377303538303,
        -7.439259726619991,
        1.4291079449700468,
        1.5945574740052306,
        1.1838750254785508,
        1.2891473831838,
        -0.9754259632299528,
        0.4130361196787822,
        0.18707505650704911,
        0.008057593581350374,
        0.9037047436288965,
        0.25843942507766565,
        -0.6870996164592347,
        -0.6947907553816788,
        -0.29857080316201123,
        -1.0929406515009599,
        -0.6877883680047107,
        -0.8861538496334126,
        0.5433446439427434,
        0.13452845309401404,
        0.38194963855605546,
        -0.9848361297222062,
        -0.0817628075447786,
        -1.6631683780723472,
        -0.17588015575353247,
        -0.8615336248761457,
        -0.4129888347565946,
        -1.2409522691315988,
        -0.735950669331808,
        -1.2299096881932516,
        -1.7067860621445101,
        -0.7292224279721163,
        -1.4112104243460115,
        -0.194126087627763,
        -0.13902245394546467,
        -1.102942739305415,
        -0.9416158971754593,
        -0.8535262729233433,
        0.07916749890612963,
        -0.5507257809001475,
        0.7193507638554888,
        -0.2943306863264519,
        -1.1643869100343247,
        -0.5344162808103187,
        -1.1991450354030933,
        0.1966869520850327,
        -1.2559040354952584,
        -0.4051939005407449,
        -0.44656325450948153,
        -1.393979487368947,
        -1.3130070201906525,
        -0.1642909106459848,
        -0.3895431807091858,
        -1.0366675004658668,
        1.1962000382853941,
        -0.14237443806047181,
        0.761121940436572,
        -0.0541064316244635,
        0.617268667414007,
        0.5224682465017499,
        0.9137174496201893,
        -0.4199570860024903,
        -0.2478138312832287,
        0.3981540370875479,
        0.6648794022801636,
        0.29533480324897193,
        1.6630823304363134,
        0.38401200021833104,
        0.8561356102085064,
        1.1661332692331634,
        1.010972032248949,
        1.591445538714232,
        0.15823572145234427,
        0.4285928190760405,
        0.4752490319175544,
        0.02849063150791062,
        0.5334790065097762,
        0.07300475205921275,
        0.2031082208076188,
        0.5436084634736942,
        -0.9020562089959758,
        0.7091770601988874,
        0.9372841191905177,
        -0.9748057814787152,
        0.5527913056561363,
        1.1658316594611593,
        1.2117039546881732,
        0.48162918020964335,
        1.19103017103359,
        1.0388351658293506,
        1.6463945859895437,
        0.5843063999263269,
        0.9967080672035237,
        0.5353639954598075,
        1.1911185652423437,
        0.799988111220759,
        17.296911914535475,
        3.726783714440897,
        -4.937244404490805,
        -3.992330881692113,
        -3.107817114588407,
        -2.8594096014335433,
        -2.4249520781591145,
        -0.19715046826025923,
        0.04076109274571893,
        -9.421041152597724,
        -9.250585242777182,
        1.7335630425897497,
        1.6203920478106404,
        1.3108076220873592,
        1.304902816698283,
        -1.1679287752642082,
        0.4154973958498707,
        0.10161419103743533,
        -0.05591365639114848,
        1.0639843796520474,
        0.2712122389935251,
        -14.734152659742705,
        -2.9584636011118435,
        4.5425769805439975,
        3.4397855695752306,
        2.4799194633261004,
        2.031183445763329,
        1.9200999657875628,
        0.7948722465881956,
        1.0190026622204682,
        8.392877729920237,
        8.086179910439593,
        -1.5866441283780035,
        -1.6802008139223483,
        -1.2043161364627808,
        -1.331655021394963,
        1.0600884290265937,
        -0.3796404756167169,
        -0.10375628054961678,
        -0.04884555504801188,
        -0.9388693994854428,
        -0.23230653735875095,
        1.8638142674835614,
        0.6232941378305955,
        0.4554969096769856,
        -1.3355643072313907,
        0.8710952683994666,
        0.9641250419030084,
        0.8852384703913239,
        -0.8467398528721175,
        0.2706302951502575,
        0.7545392011853937,
        1.2971925735118328,
        1.4944842864988581,
        1.5868255963748277,
        1.0947222336178735,
        0.46778894919341013,
        0.6606238315161606,
        0.8103645874819145,
        0.6728716347305365,
        0.59899291046042,
        0.42020856567902104,
        0.1751065210452766,
        -3.532452882284046,
        -1.6332688215567654,
        1.3543567285356826,
        2.0322988944044873,
        1.1671109065610197,
        0.6121213521926134,
        0.6503016710235947,
        -0.578590720570482,
        -0.28789896861677167,
        -0.0741270128899473,
        -0.9522198079192217,
        -0.9517727672352326,
        -0.7241209617157169,
        -0.5277737368802872,
        -1.3269933215262575,
        -0.904002416312982,
        -1.4733591582756174,
        -0.536341329567449,
        -0.4171438125611994,
        -1.1850527636280752,
        -0.23202380431697342,
        -8.389412611249622,
        1.8895654247994673,
        2.7510147880747007,
        1.8851128857920996,
        0.994977318737081,
        0.953362488606421,
        0.5885426006446439,
        0.48389533155568765,
        0.15319611770956273,
        4.000183796075787,
        4.088659140492088,
        0.4368636125986801,
        1.00425750580144,
        0.45853033477330446,
        0.3761626581258202,
        -0.12918879143024276,
        0.05466400614726799,
        0.10939995447846873,
        -0.07038833007044162,
        0.04780769226375956,
        0.0698437888313458,
        -0.694508686239238,
        -0.44597723188009775,
        -0.5766250844096082,
        -0.2647718409256679,
        -0.9586048246201633,
        0.8406385540339281,
        0.4418814567205735,
        0.48681822759411464,
        -0.6305736028119184,
        -1.0926096929734377,
        -1.367402275908953,
        -1.149694619756947,
        -1.7516698265915922,
        -0.8311462011026856,
        -1.5414562602432293,
        -0.7322715760735384,
        -0.9453815590791529,
        -0.4475304337064281,
        -1.8872507629078668,
        -1.0342111732022892,
        -1.7444729703796138,
        -10.26979066160416,
        2.6025564083165627,
        2.8928778868241434,
        2.1619335210995576,
        1.3358286262271872,
        1.2296058291512568,
        1.048316899411877,
        1.067616197589724,
        0.6144419999012902,
        1.1106483280574642,
        1.4567606001720077,
        0.5560318114754401,
        0.6260029410407364,
        0.5865913689988149,
        0.2345129609052015,
        0.44300563282119876,
        0.2493752883199675,
        0.5750634801855667,
        0.6223151806060311,
        0.3699138023647718,
        0.4278858151581107,
        -1.0136105750319824,
        -0.896733460646502,
        0.6335542266768679,
        0.6184877676556618,
        0.3278143294876821,
        0.2959663813316801,
        0.6298503752960827,
        -0.7448755225616188,
        0.9466707771689764,
        -1.2439612474729538,
        -0.7608660014984325,
        -0.1068564399801082,
        -1.7044065725148285,
        -1.1790888466378875,
        -1.5309826507357436,
        -1.0052069986140757,
        -0.7994136800825414,
        -1.035842850036174,
        -0.9043718776257148,
        -1.646871408025687,
        -1.2948710954806533,
        0.6794791537916851,
        0.36586195370726693,
        0.24635937987009962,
        0.927173646210219,
        -0.02686573068573222,
        0.7475157269789213,
        -0.6166906622445527,
        -0.5095648810154981,
        0.7487921619595134,
        0.7269757985052927,
        0.3804053736852069,
        -0.038881042469066984,
        0.38803791700412726,
        1.4756586837831907,
        1.421399309739884,
        0.2998258814057663,
        0.3260568321809741,
        1.0205951244118192,
        1.776780472387395,
        0.7331951163055448,
        1.7639905067760682,
        10.640237283359777,
        -2.455253014401884,
        -2.7974323848187175,
        -2.0369360952431923,
        -1.5841386474833297,
        -1.2196120206735988,
        -1.5059236705669554,
        -0.10319356970406042,
        -0.8893965080959736,
        -1.1046727307284454,
        -1.3683551546063109,
        -0.1828668849726535,
        -0.49912218751620685,
        -0.013673572238283329,
        -0.24842529080012127,
        -0.2431582438420252,
        -0.43621155798369526,
        -0.19086130914847732,
        -0.5064862402870088,
        -0.2893453370295307,
        -0.38461193709519226,
        10.444514032405035,
        -1.4604284143328563,
        -2.8854768957259957,
        -1.872542703305795,
        -1.3249325567078571,
        -0.9948341922357206,
        -1.255310736870581,
        0.04713792072603579,
        -0.02521938819866351,
        -1.5338168410432036,
        -2.1454966028821962,
        -0.2860479378942325,
        -0.303786126847207,
        -0.3153396272663194,
        -0.42316800629188295,
        -0.5483768399457015,
        -0.03092231544387352,
        -0.4033776439232268,
        -0.35632477609832736,
        -0.6573245393896379,
        -0.4853370108721557,
        -1.0156658006478858,
        0.7632203461750855,
        0.44324779316586954,
        -0.11476449995650806,
        -0.37840582675980877,
        -0.09241142368977694,
        0.8146308721993092,
        0.6030723563677564,
        -0.5859802072642789,
        1.8971557905489402,
        2.0841656587305977,
        0.11384726086752492,
        1.323162006661911,
        1.3325706103515238,
        0.636706176253898,
        1.0498931177428565,
        1.102676551864039,
        0.8564321490676604,
        1.283749653407381,
        0.2234415190642416,
        1.291952834269459,
        0.75662202307689,
        0.9450954391838553,
        0.24288628156926592,
        0.8980257075154523,
        0.0419393504207357,
        0.7486716918245672,
        -0.16776527090094118,
        0.5246827184166777,
        0.5424351717100062,
        1.3938571813876661,
        0.4600374980853081,
        0.35947242050788936,
        0.15215537675633967,
        1.8368760068450074,
        0.8396874398087217,
        1.6881151238589276,
        1.9944949757161925,
        0.4292655301031929,
        1.2561457455671081,
        1.06216320380669,
        1.3464826665474734,
        -1.4391983904400028,
        -0.7087539766811641,
        -0.02003464206533943,
        -0.8131850370242296,
        0.5350549862229703,
        -0.6092665837840657,
        -0.15368290706472051,
        0.0442585102561904,
        0.27456083695227645,
        -0.09724498723370552,
        -0.27165944485493393,
        -1.1812514842370314,
        -0.17010227755426027,
        -1.3280315031975143,
        -0.5563143263824282,
        -1.9919536789250392,
        -0.686399084373491,
        -1.0016913159312533,
        -1.670083340220493,
        -0.8089118420613758,
        -0.9485846799263921,
        10.11154261908102,
        -1.689431036432689,
        -3.2907321002655054,
        -2.179337906538331,
        -1.74794320451811,
        -1.7595575080132786,
        -1.5826915817975382,
        0.3185079677502669,
        0.5903200892923964,
        -1.6683997512485085,
        -2.0037196509666035,
        0.14766083461893464,
        -0.010275779104849326,
        0.2261411968419162,
        -0.22209477884637716,
        -0.32737862580443106,
        -0.06826049094700698,
        -0.4766502984595381,
        -0.022419258968744304,
        -0.05086256186060556,
        -0.5467610157025106,
        0.7236348162002963,
        -1.3095622510766936,
        -1.0459685127011504,
        0.4341702917149578,
        -1.203750618173941,
        0.5849342587210379,
        -0.4163068830726088,
        -0.14235639415490092,
        -0.31887705003524786,
        -0.9260489428210265,
        -1.00400271820011,
        -0.7603979014660195,
        -0.6594864944286436,
        -0.0805463398023457,
        -0.13969555597019154,
        -1.9904240435284104,
        -0.9541650755143906,
        -1.9828730822887406,
        -0.5853231535885484,
        -1.6487105473456123,
        -0.9663447136991454,
        -0.17596750911764864,
        -0.646056237322933,
        -0.5304905714302333,
        -0.5553758885236082,
        0.7747905089475279,
        0.3656632809247811,
        0.1447456384390118,
        -0.8327099937202002,
        0.7241455257325419,
        -1.790410865773839,
        -1.6204085113406577,
        -1.377988775027573,
        -1.7561739287986873,
        -0.7411105427296807,
        -0.2679801345325669,
        -0.7764223589297476,
        -1.119158059895482,
        -0.6389816675995887,
        -0.8227947974759252,
        -0.9243201166126728,
        -0.7001488372367761,
        1.785820411018018,
        1.6434894082132312,
        0.8611727997711299,
        -0.5946325150210062,
        -0.6966465942511177,
        -0.1622032699545401,
        -0.8064642807327027,
        0.6526736879047133,
        0.13327075003599884,
        0.5916612121176335,
        0.4043020469862295,
        0.9770552445905779,
        1.2264700880631083,
        1.4327793738559826,
        0.7918255037581912,
        0.4894000087256002,
        0.9051105085236326,
        0.9078311881673382,
        0.9544451685839174,
        0.536618715229896,
        0.5858488233055893,
        -1.1580442255934886,
        -0.9662092420018609,
        0.0698999793181625,
        -0.9130527257128819,
        -0.05724034962920354,
        -0.19842863963015886,
        0.7565763640273154,
        -0.8782823621798574,
        -0.6549731746973265,
        -0.3051271086207768,
        -1.3880579398734274,
        -1.5888658888613818,
        -0.9453056262099532,
        -1.229810715047225,
        -0.07657532742483521,
        -1.7533037303385701,
        -1.7005818890092228,
        -1.010439761102677,
        -0.41269539581463777,
        -1.673733607559947,
        -1.1982107959227326,
        1.0706020540417571,
        -0.05678746119310235,
        -0.5114290286344849,
        -0.37971451926446365,
        -0.7433126962362372,
        -0.036166736373171464,
        0.8186187144269071,
        0.5140002693599942,
        -0.6235633373150812,
        -1.878815254346881,
        -1.1851069204974156,
        -1.5737979660872885,
        -1.2629750435793672,
        0.012805033697578419,
        -1.1987555374226464,
        -0.3218143629579085,
        -0.33256651532325665,
        -1.3691551938171094,
        -0.6650825846420851,
        -1.3533562840557125,
        -1.5911425520956584,
        12.63883132444075,
        2.4870261792518056,
        -3.662520728001028,
        -2.582381715233772,
        -1.8432089805729992,
        -1.4371070253015272,
        -1.3333476899687002,
        0.2131430502054555,
        -0.31692467266334834,
        -6.656974724842176,
        -6.429879235038558,
        1.2843019871013948,
        1.5728208459302837,
        1.2378870743662025,
        1.4037963285258048,
        -0.7850444787962413,
        0.3939316050889323,
        0.004822932668948344,
        -0.013009022747750336,
        0.8269665119334989,
        0.18361382390863876,
        -10.555588884971035,
        2.8528391236567607,
        2.5327750217162537,
        1.660578213759133,
        1.0481627988502058,
        0.8939577064718871,
        0.770393786848218,
        0.4277882876284066,
        0.7861440863362822,
        0.758711582377565,
        0.9456739223254002,
        0.6718744091752341,
        0.30230464743711705,
        0.5116173929302883,
        0.432780839807898,
        0.7983826757258214,
        0.8288074882907215,
        0.46719727680982026,
        0.42925429393209913,
        0.3866273069738284,
        0.5451409240835451
      ]
    },
    {
      "type": "SimpleMatrix",
      "cols": 63,
      "rows": 3,
      "values": [
        -0.04867634317628224,
        -0.9307300989956173,
        0.391586185595541,
        0.6289754733229618,
        0.0517977531654909,
        0.15609351537719418,
        0.2616066701306835,
        -1.4397575840710197,
        0.9092029470394842,
        -0.49504203167702054,
        -0.47537106145346353,
        -0.3854182553243077,
        -0.8701745735528191,
        -0.7329377231085689,
        -0.42610081964714613,
        0.36448932147189134,
        -0.8562922313803555,
        -0.7342505561782666,
        -0.9715001241215216,
        0.8336561240177038,
        -0.998503240479724,
        -0.9909447348697135,
        -0.17542443570671035,
        0.8383389942880805,
        0.7467320294976915,
        0.48657229664220053,
        -0.054952796033794,
        0.027816748437983495,
        -0.17501049062930943,
        0.08283384057847154,
        -0.798278537209904,
        0.5138631869749231,
        0.20436522990484116,
        0.5625916787523019,
        -0.6386976420865559,
        -0.6287904424906487,
        0.9629033471324522,
        0.7740791885294405,
        0.12136854255187324,
        -0.1550905757732278,
        -0.29255092631619506,
        0.6552801376988416,
        -1.0168683181903941,
        0.025905741052405288,
        -0.0745290084677998,
        -1.7390108316278858,
        0.8041357756208013,
        -1.2646540100429098,
        0.245908246972256,
        -0.037298991581551574,
        0.9101294039295382,
        0.5172688062959485,
        -0.7356750625357603,
        -0.11441358799696975,
        0.2176169908124936,
        0.5783141336219437,
        0.6045985559558367,
        0.9166843548987529,
        -0.24129558409695773,
        0.9093209819968185,
        0.773609746339818,
        0.8242636407448378,
        -1.389779544148697,
        0.17432109492374168,
        -0.8609370428962817,
        0.09366723794449669,
        -1.061178554018837,
        0.7683055458014577,
        0.28279399369612024,
        -0.8871533801865567,
        0.3095368771831491,
        0.32827507629813196,
        -0.014038825115979276,
        -0.9817388310978609,
        0.8602200752054755,
        -0.2677817839249536,
        0.11086793832782825,
        0.8295405256460381,
        -0.16205891994493893,
        -0.10171267111162885,
        -0.4700092082389755,
        0.08345707722369397,
        -0.2373214052007973,
        -0.2968468073203894,
        -0.11081527451450403,
        -1.8503100427721293,
        -2.3721608022138825,
        0.4500105520076874,
        -0.7403218771717334,
        0.1961509039613024,
        -0.49416738456347886,
        -0.7623048666217231,
        -0.7728964026910794,
        -0.07262027472067747,
        -0.17999670193814027,
        -0.11086817151724192,
        -1.4317970563427467,
        -0.047442108960056406,
        -0.3891431172676714,
        0.3192034738874945,
        0.8219441233340747,
        -0.23281496850421593,
        -0.6856009409897262,
        0.6849632727412737,
        -0.8703170290336124,
        0.29171364064784844,
        -0.8778861017982899,
        -0.19519891606929313,
        0.6912525732391243,
        -0.00482765051293592,
        -0.8300154152045834,
        -0.7499949651172657,
        0.15832590497165994,
        1.0325642003154145,
        0.03553557084738013,
        1.0387055714374067,
        0.8116567997115638,
        -0.8360391948095428,
        -0.22032397561015826,
        -1.0553453789388483,
        -0.5040361035331736,
        0.29184318301841233,
        0.07422128974508677,
        -0.6927906329750455,
        -0.22837245828708208,
        -0.7250616950911805,
        -0.8584139236840027,
        0.8139547423721597,
        0.9033460128610674,
        0.5287645985615379,
        0.6078131143930388,
        0.15972905732496487,
        0.0747095684673401,
        0.24494647914286669,
        -0.5430807110613008,
        0.4566298841513809,
        -0.06334416262348394,
        -0.26114186209873747,
        0.8152478616774493,
        -0.7909865825716581,
        -0.06886762716778089,
        -0.016703959847151912,
        0.38701947643596907,
        0.6719139632386032,
        -0.1278620126895459,
        0.3090687590921071,
        0.17106651770716796,
        -0.714229623658591,
        4.064047247063236,
        -1.3565243797290765,
        -0.9676598460788413,
        0.9316450563930726,
        0.8339682308534119,
        0.9844269166845886,
        -0.20727380564098088,
        0.05484889077563174,
        -0.8033769862465303,
        0.034726064098752174,
        -0.5533522277463983,
        -1.6141719178890834,
        0.9819822214462945,
        0.409976446563861,
        -0.6576351024856314,
        0.5002128662346454,
        -0.02965472075381964,
        0.10601435783491095,
        -0.04652105441133781,
        -1.5249316104969084,
        0.8259217022459014,
        -0.5922255348621477,
        1.2379539613167336,
        0.1766030878462017,
        0.8511473738942527,
        0.24001031692334937,
        0.5163397417411332,
        -0.2411988560127777,
        -0.37952011854780526,
        -0.4878601044724625,
        0.095357598942008,
        -0.5411063048629835,
        0.6219806562729753,
        -0.49771796725828643,
        -0.05139259758480361,
        0.7796859567726899,
        -0.5727887363288536,
        0.4048810716553557,
        0.05488403348624043,
        -0.6754861158084874,
        0.22521492124442835
      ]
    }
  ],
  "biases": [
    {
      "type": "SimpleMatrix",
      "cols": 1,
      "rows": 63,
      "values": [
        2.4544885845160715,
        -0.4653426270619183,
        -1.9669779720495668,
        -2.221509622801749,
        -1.6162275412339544,
        -0.6278803230361683,
        -1.1967358798063608,
        1.9177340322941319,
        0.11186068978500786,
        0.884864852780632,
        1.7821358786262187,
        2.3705800621727016,
        -0.28156275941374237,
        1.270715698024292,
        2.0029795260179792,
        -1.8982206164477968,
        0.8291443136462353,
        0.9968392998705333,
        1.730412286238052,
        -2.2124643320365087,
        1.395488236148578,
        1.7447661422865037,
        -2.3572783736265626,
        0.907851375106027,
        0.8372403798396545,
        -1.7847343056069085,
        -1.3545847154183266,
        -1.2250915453212823,
        1.8336872760970158,
        -1.838476611841375,
        1.855381643392971,
        -2.566188873487814,
        0.543310269417098,
        1.154753194074459,
        -0.2718971862177306,
        1.051815119800612,
        0.15545634577732564,
        -2.6547472023478984,
        -1.6563477663714674,
        1.5206926554908644,
        1.9107078856291249,
        0.6745215602842006,
        -0.16342754252858882,
        1.5183898998793728,
        -0.6811880164418894,
        0.9600016416478762,
        -1.445901661089454,
        0.7908415629149292,
        -1.427258672366625,
        1.9617394430441952,
        -1.4470218276093612,
        0.11516747538209804,
        1.030581040648786,
        1.2433845609869292,
        -2.3012300817194893,
        -0.9648032535970124,
        -1.467296379571453,
        -2.768489552698287,
        2.5255665041994133,
        -1.7689873609620392,
        -2.118571953099901,
        -0.7255412147353204,
        1.17936495377208
      ]
    },
    {
      "type": "SimpleMatrix",
      "cols": 1,
      "rows": 3,
      "values": [
        0.6250148013292849,
        0.15582927829421409,
        0.47978183444234385
      ]
    }
  ]
}